<?xml version="1.0"?>
<opencv_storage>
<opencv_ml_svm>
  <format>3</format>
  <svmType>C_SVC</svmType>
  <kernel>
    <type>RBF</type>
    <gamma>3.5000000000000000e+00</gamma></kernel>
  <C>3.1000000312924385e+00</C>
  <term_criteria><epsilon>1.0000000000000000e-04</epsilon>
    <iterations>1000</iterations></term_criteria>
  <var_count>16</var_count>
  <class_count>20</class_count>
  <class_labels type_id="opencv-matrix">
    <rows>20</rows>
    <cols>1</cols>
    <dt>i</dt>
    <data>
      1 2 3 4 5 6 7 8 9 10 11 12 13 14 15 16 17 18 19 20</data></class_labels>
  <sv_total>198</sv_total>
  <support_vectors>
    <_>
      2.44097769e-01 7.73148954e-01 1.24352589e-01 8.82920802e-01
      2.68363208e-01 7.59903729e-01 1.87557712e-01 7.88278878e-01
      2.68246502e-01 7.47205377e-01 2.21301973e-01 8.04329097e-01
      2.68398881e-01 7.58601010e-01 1.90468475e-01 7.81572938e-01</_>
    <_>
      2.67830193e-01 7.58614182e-01 1.80876613e-01 8.56195569e-01
      2.94533491e-01 7.42895365e-01 3.04603100e-01 7.24760175e-01
      2.98908085e-01 7.29302645e-01 3.54978889e-01 7.51642466e-01
      2.93531775e-01 7.42153227e-01 3.00799817e-01 7.18673110e-01</_>
    <_>
      2.34510437e-01 7.79047072e-01 1.27348945e-01 8.85850847e-01
      2.60936052e-01 7.64583707e-01 1.90911353e-01 7.83575475e-01
      2.64014333e-01 7.51087368e-01 2.21301973e-01 7.96671212e-01
      2.60516137e-01 7.64703274e-01 1.90141901e-01 7.86763847e-01</_>
    <_>
      8.26620236e-02 9.06769872e-01 1.72972530e-02 9.81463492e-01
      9.89714414e-02 8.98912489e-01 1.95357241e-02 9.23500538e-01
      1.02034271e-01 8.86566818e-01 3.79027836e-02 9.13276911e-01
      9.97377113e-02 8.98958325e-01 2.65216790e-02 9.21363473e-01</_>
    <_>
      1.12041600e-01 8.60087156e-01 3.07821445e-02 9.84193087e-01
      1.37937531e-01 8.47512901e-01 5.37432693e-02 9.07597542e-01
      1.42581224e-01 8.33578408e-01 7.82511979e-02 8.95262599e-01
      1.38406590e-01 8.46398950e-01 5.44314757e-02 9.08333540e-01</_>
    <_>
      1.18785590e-01 8.59047055e-01 3.54131088e-02 9.77006733e-01
      1.44409522e-01 8.46193612e-01 5.44143170e-02 9.02835965e-01
      1.46826237e-01 8.33787560e-01 7.74351284e-02 8.97593856e-01
      1.42977923e-01 8.46885920e-01 5.96542843e-02 9.01338160e-01</_>
    <_>
      2.31926486e-01 7.62167454e-01 1.19177185e-01 9.04294848e-01
      2.60526687e-01 7.46241152e-01 1.95019335e-01 7.81666219e-01
      2.66943514e-01 7.31418967e-01 2.36653447e-01 7.88547099e-01
      2.60523170e-01 7.44926691e-01 1.95038140e-01 7.78057694e-01</_>
    <_>
      2.67830193e-01 7.58614182e-01 1.80876613e-01 8.56195569e-01
      2.94533491e-01 7.42895365e-01 3.04603100e-01 7.24760175e-01
      2.98908085e-01 7.29302645e-01 3.54978889e-01 7.51642466e-01
      2.93531775e-01 7.42153227e-01 3.00799817e-01 7.18673110e-01</_>
    <_>
      2.00155631e-01 7.95127034e-01 8.55351239e-02 9.12714958e-01
      2.16264918e-01 7.85472751e-01 1.13523588e-01 8.42414081e-01
      2.31939450e-01 7.68190324e-01 1.47127256e-01 8.30411017e-01
      2.27090701e-01 7.78725028e-01 1.33425981e-01 8.22268069e-01</_>
    <_>
      1.12041600e-01 8.60087156e-01 3.07821445e-02 9.84193087e-01
      1.37937531e-01 8.47512901e-01 5.37432693e-02 9.07597542e-01
      1.42581224e-01 8.33578408e-01 7.82511979e-02 8.95262599e-01
      1.38406590e-01 8.46398950e-01 5.44314757e-02 9.08333540e-01</_>
    <_>
      2.42647693e-01 7.62645423e-01 1.12094305e-01 8.87362182e-01
      2.69337177e-01 7.45349765e-01 1.80598959e-01 7.70361841e-01
      2.72435099e-01 7.33464599e-01 2.17905760e-01 7.93280303e-01
      2.68745452e-01 7.45205820e-01 1.80757061e-01 7.71929443e-01</_>
    <_>
      2.00155631e-01 7.95127034e-01 8.55351239e-02 9.12714958e-01
      2.16264918e-01 7.85472751e-01 1.13523588e-01 8.42414081e-01
      2.31939450e-01 7.68190324e-01 1.47127256e-01 8.30411017e-01
      2.27090701e-01 7.78725028e-01 1.33425981e-01 8.22268069e-01</_>
    <_>
      1.51989236e-01 8.14252198e-01 2.92839669e-02 9.74076629e-01
      1.74652174e-01 8.01723421e-01 5.74324429e-02 8.75838220e-01
      1.83169216e-01 7.87907958e-01 9.68618020e-02 8.60025167e-01
      1.75778091e-01 8.01233530e-01 6.61007687e-02 8.75688434e-01</_>
    <_>
      1.50126606e-01 8.11101735e-01 1.68892499e-02 9.72704113e-01
      1.69262365e-01 7.98692584e-01 2.94293091e-02 8.93534064e-01
      1.78601012e-01 7.85105646e-01 6.16762489e-02 8.84496391e-01
      1.70035824e-01 7.98243284e-01 3.31318341e-02 8.98361862e-01</_>
    <_>
      2.30078682e-01 7.69472420e-01 1.34158954e-01 8.63705754e-01
      2.58604616e-01 7.54549265e-01 2.31994361e-01 7.57683694e-01
      2.50620067e-01 7.39896655e-01 2.97921032e-01 7.94905126e-01
      2.59619206e-01 7.54114211e-01 2.44002074e-01 7.55782604e-01</_>
    <_>
      1.50126606e-01 8.11101735e-01 1.68892499e-02 9.72704113e-01
      1.69262365e-01 7.98692584e-01 2.94293091e-02 8.93534064e-01
      1.78601012e-01 7.85105646e-01 6.16762489e-02 8.84496391e-01
      1.70035824e-01 7.98243284e-01 3.31318341e-02 8.98361862e-01</_>
    <_>
      2.30078682e-01 7.69472420e-01 1.34158954e-01 8.63705754e-01
      2.58604616e-01 7.54549265e-01 2.31994361e-01 7.57683694e-01
      2.50620067e-01 7.39896655e-01 2.97921032e-01 7.94905126e-01
      2.59619206e-01 7.54114211e-01 2.44002074e-01 7.55782604e-01</_>
    <_>
      1.06967553e-01 8.46712768e-01 5.17540239e-03 9.94926333e-01
      1.26492143e-01 8.36691022e-01 2.57401355e-02 9.31486905e-01
      1.32249549e-01 8.23910296e-01 5.69220707e-02 9.19352353e-01
      1.25479490e-01 8.37086737e-01 2.92963684e-02 9.33362246e-01</_>
    <_>
      1.06967553e-01 8.46712768e-01 5.17540239e-03 9.94926333e-01
      1.26492143e-01 8.36691022e-01 2.57401355e-02 9.31486905e-01
      1.32249549e-01 8.23910296e-01 5.69220707e-02 9.19352353e-01
      1.25479490e-01 8.37086737e-01 2.92963684e-02 9.33362246e-01</_>
    <_>
      2.23808989e-01 7.72499621e-01 1.33206517e-01 8.78032207e-01
      2.52570212e-01 7.57244289e-01 2.36270502e-01 7.64703810e-01
      2.44974598e-01 7.41523862e-01 2.94660598e-01 8.03453088e-01
      2.54518628e-01 7.55328715e-01 2.40900815e-01 7.61254728e-01</_>
    <_>
      1.04331717e-01 8.48826110e-01 0. 1. 1.24071315e-01 8.39038432e-01
      1.98712479e-02 9.33722198e-01 1.31423637e-01 8.24830055e-01
      5.78726493e-02 9.22206342e-01 1.26273394e-01 8.37351024e-01
      2.75013894e-02 9.34487104e-01</_>
    <_>
      1.06967553e-01 8.46712768e-01 5.17540239e-03 9.94926333e-01
      1.26492143e-01 8.36691022e-01 2.57401355e-02 9.31486905e-01
      1.32249549e-01 8.23910296e-01 5.69220707e-02 9.19352353e-01
      1.25479490e-01 8.37086737e-01 2.92963684e-02 9.33362246e-01</_>
    <_>
      1.85140997e-01 7.88558543e-01 7.21879601e-02 9.36618090e-01
      2.08696619e-01 7.74763763e-01 1.24423742e-01 8.27291131e-01
      2.15569839e-01 7.60078728e-01 1.69271156e-01 8.34013879e-01
      2.09367469e-01 7.73703694e-01 1.33997276e-01 8.25045109e-01</_>
    <_>
      6.53914869e-01 4.74537790e-01 3.69789839e-01 5.96931159e-01
      6.84671879e-01 4.63692278e-01 5.07671833e-01 4.79917586e-01
      6.77886665e-01 4.54492599e-01 5.13516963e-01 5.97835481e-01
      6.80742860e-01 4.65604782e-01 4.87351000e-01 4.90426749e-01</_>
    <_>
      7.52569735e-01 4.03526217e-01 3.07681113e-01 5.04433632e-01
      7.82036483e-01 3.95730078e-01 5.66278219e-01 4.28285360e-01
      7.95297921e-01 3.75219166e-01 7.10365176e-01 4.99879897e-01
      7.80480564e-01 3.95296961e-01 5.58756411e-01 4.27585483e-01</_>
    <_>
      7.52910674e-01 4.05387044e-01 3.30835938e-01 4.91495103e-01
      7.80876696e-01 3.97646636e-01 5.81202269e-01 4.22056913e-01
      7.89734483e-01 3.81315947e-01 7.14847744e-01 5.03525138e-01
      7.75932670e-01 3.97423118e-01 5.74180126e-01 4.29038465e-01</_>
    <_>
      6.64352000e-01 4.38430786e-01 2.27457836e-01 6.42393410e-01
      7.04191387e-01 4.27464783e-01 4.07478780e-01 4.69684273e-01
      7.20772862e-01 4.01156604e-01 4.91644621e-01 5.33972919e-01
      7.03784466e-01 4.25594330e-01 4.02644217e-01 4.64859039e-01</_>
    <_>
      6.64352000e-01 4.38430786e-01 2.27457836e-01 6.42393410e-01
      7.04191387e-01 4.27464783e-01 4.07478780e-01 4.69684273e-01
      7.20772862e-01 4.01156604e-01 4.91644621e-01 5.33972919e-01
      7.03784466e-01 4.25594330e-01 4.02644217e-01 4.64859039e-01</_>
    <_>
      6.76377535e-01 4.51083720e-01 3.91173631e-01 5.74893951e-01
      7.03704417e-01 4.39252406e-01 4.82854187e-01 4.59485888e-01
      7.07406819e-01 4.25202250e-01 4.54693705e-01 5.52213311e-01
      7.01170921e-01 4.40094203e-01 4.64420050e-01 4.61636722e-01</_>
    <_>
      6.76377535e-01 4.51083720e-01 3.91173631e-01 5.74893951e-01
      7.03704417e-01 4.39252406e-01 4.82854187e-01 4.59485888e-01
      7.07406819e-01 4.25202250e-01 4.54693705e-01 5.52213311e-01
      7.01170921e-01 4.40094203e-01 4.64420050e-01 4.61636722e-01</_>
    <_>
      6.70095503e-01 4.54038769e-01 4.54236090e-01 6.05212450e-01
      7.05974638e-01 4.42705184e-01 5.21337867e-01 4.73060459e-01
      7.08158374e-01 4.25506771e-01 4.60535556e-01 5.51619887e-01
      7.05559611e-01 4.41106766e-01 5.06283581e-01 4.66358900e-01</_>
    <_>
      6.70253575e-01 4.38914776e-01 2.63688236e-01 6.27511740e-01
      7.06750989e-01 4.26588207e-01 4.21984017e-01 4.63665366e-01
      7.21611619e-01 4.05506164e-01 4.76566017e-01 5.23446858e-01
      7.05175519e-01 4.27453220e-01 4.12354857e-01 4.63382632e-01</_>
    <_>
      7.47120202e-01 4.13040727e-01 3.51675272e-01 4.93114352e-01
      7.71957994e-01 4.04427409e-01 5.99564075e-01 4.16748166e-01
      7.73395658e-01 3.95536631e-01 7.27074623e-01 5.15916169e-01
      7.68642426e-01 4.06376004e-01 6.05353296e-01 4.07607049e-01</_>
    <_>
      6.91488504e-01 4.35704201e-01 2.48160735e-01 6.00138783e-01
      7.29846478e-01 4.24234867e-01 3.91800374e-01 4.35456842e-01
      7.47171462e-01 3.99990767e-01 4.50618535e-01 5.09275615e-01
      7.25425661e-01 4.24822271e-01 3.86241585e-01 4.41927761e-01</_>
    <_>
      4.27640468e-01 6.88381195e-01 2.28684440e-01 6.17703736e-01
      4.28989172e-01 6.86518669e-01 2.01559275e-01 6.55746460e-01
      4.30470228e-01 6.71180308e-01 1.76470965e-01 7.29177535e-01
      4.31985199e-01 6.84682369e-01 2.24742919e-01 6.45532072e-01</_>
    <_>
      3.70160937e-01 7.58454859e-01 2.71724880e-01 5.93137503e-01
      3.69986027e-01 7.58311033e-01 2.25202978e-01 6.56747699e-01
      3.59938860e-01 7.46685505e-01 1.37074426e-01 7.73217261e-01
      3.70991319e-01 7.54966438e-01 2.25558951e-01 6.46516383e-01</_>
    <_>
      3.98349822e-01 7.49006450e-01 3.49359810e-01 5.57683706e-01
      4.01099145e-01 7.42868602e-01 2.87415236e-01 6.00388825e-01
      3.89795035e-01 7.35787034e-01 1.96305037e-01 7.18411326e-01
      3.98459047e-01 7.45885789e-01 3.01778764e-01 6.10355973e-01</_>
    <_>
      4.50140178e-01 6.82858884e-01 2.89702982e-01 5.60829699e-01
      4.55375910e-01 6.75768137e-01 2.75676668e-01 6.07781529e-01
      4.54255134e-01 6.61822855e-01 2.23203123e-01 6.74880266e-01
      4.53268081e-01 6.75096929e-01 2.48571739e-01 5.92088282e-01</_>
    <_>
      3.55734229e-01 7.79188335e-01 2.63551801e-01 5.84578633e-01
      3.56879711e-01 7.74852931e-01 2.07931846e-01 6.47538900e-01
      3.43558997e-01 7.64631331e-01 1.33542418e-01 7.77229905e-01
      3.60832304e-01 7.71767616e-01 2.26619720e-01 6.37470424e-01</_>
    <_>
      4.00916487e-01 7.40021050e-01 3.45682561e-01 5.62217593e-01
      4.03663456e-01 7.36803949e-01 3.03093642e-01 6.05371594e-01
      3.96969229e-01 7.27761567e-01 2.34072030e-01 7.13141263e-01
      4.02262241e-01 7.38673031e-01 3.15243810e-01 6.07848406e-01</_>
    <_>
      4.44979668e-01 6.87196732e-01 2.63551801e-01 5.64931750e-01
      4.49976712e-01 6.78926706e-01 2.48260513e-01 6.13602519e-01
      4.44513410e-01 6.68018103e-01 1.85437426e-01 6.94265068e-01
      4.42153573e-01 6.83663845e-01 2.12338641e-01 6.22425079e-01</_>
    <_>
      3.66008312e-01 7.67485321e-01 2.70498246e-01 5.83267808e-01
      3.64424497e-01 7.65864372e-01 2.15142027e-01 6.53581083e-01
      3.50209951e-01 7.56861150e-01 1.27700582e-01 7.81807661e-01
      3.68049920e-01 7.61932731e-01 2.27109194e-01 6.39767051e-01</_>
    <_>
      4.50140178e-01 6.82858884e-01 2.89702982e-01 5.60829699e-01
      4.55375910e-01 6.75768137e-01 2.75676668e-01 6.07781529e-01
      4.54255134e-01 6.61822855e-01 2.23203123e-01 6.74880266e-01
      4.53268081e-01 6.75096929e-01 2.48571739e-01 5.92088282e-01</_>
    <_>
      7.92369187e-01 2.79828638e-01 3.41868907e-01 6.09191120e-01
      8.12276781e-01 2.71162421e-01 3.13490123e-01 5.51993132e-01
      7.85569012e-01 2.56827354e-01 2.02554271e-01 7.31438160e-01
      8.13557088e-01 2.69145578e-01 3.14101189e-01 5.45393825e-01</_>
    <_>
      6.39451087e-01 3.72223049e-01 1.00518189e-01 7.34582484e-01
      6.41605198e-01 3.71236712e-01 7.45370090e-02 7.28334248e-01
      6.20303214e-01 3.61090779e-01 4.75482233e-02 8.57736290e-01
      6.41362011e-01 3.72259945e-01 8.61759633e-02 7.25680232e-01</_>
    <_>
      7.76833296e-01 2.76362538e-01 4.13647562e-01 5.64577043e-01
      7.97483683e-01 2.68131584e-01 3.54992718e-01 5.14331281e-01
      7.61045396e-01 2.53951222e-01 2.04864100e-01 7.42458701e-01
      7.95744836e-01 2.67749935e-01 3.63718271e-01 5.10569215e-01</_>
    <_>
      3.86104435e-01 6.16578996e-01 1.09234385e-01 7.72472799e-01
      4.06663030e-01 5.98876834e-01 1.08995996e-01 7.06377506e-01
      3.84485573e-01 6.01919472e-01 8.92546028e-02 8.12340140e-01
      4.05953020e-01 5.95610559e-01 1.10738993e-01 7.05209613e-01</_>
    <_>
      7.89693832e-01 2.71261096e-01 4.30808395e-01 5.46472371e-01
      8.04939032e-01 2.64271706e-01 3.73187155e-01 5.04796505e-01
      7.56038547e-01 2.56781191e-01 2.01603696e-01 7.60360003e-01
      8.00346613e-01 2.64691383e-01 3.64941955e-01 5.04675329e-01</_>
    <_>
      6.63509607e-01 3.36509854e-01 7.69540593e-02 7.20240593e-01
      6.67017996e-01 3.36634576e-01 6.69072196e-02 7.14689851e-01
      6.38522148e-01 3.22996706e-01 4.60544601e-02 8.60025167e-01
      6.60370946e-01 3.37143153e-01 6.37344792e-02 7.18450487e-01</_>
    <_>
      7.56907642e-01 2.68847138e-01 4.01933730e-01 6.29547358e-01
      7.92242050e-01 2.60337561e-01 4.34895724e-01 4.79207426e-01
      7.87159264e-01 2.42720485e-01 3.45469236e-01 6.21769786e-01
      7.89421797e-01 2.59708643e-01 4.26717788e-01 4.72627789e-01</_>
    <_>
      5.94034135e-01 3.25296849e-01 1.08553514e-01 8.08635950e-01
      6.09911025e-01 3.22832346e-01 1.17883809e-01 7.51001239e-01
      6.03074372e-01 3.07185709e-01 9.97148305e-02 8.43127012e-01
      6.08037293e-01 3.23130280e-01 1.14248656e-01 7.45881259e-01</_>
    <_>
      6.45421863e-01 2.81136334e-01 1.72431991e-01 8.24165344e-01
      6.59790814e-01 2.77809471e-01 1.82024345e-01 7.60116875e-01
      6.55497074e-01 2.63717741e-01 1.36531234e-01 8.50021899e-01
      6.56579494e-01 2.78436989e-01 1.74637139e-01 7.58290172e-01</_>
    <_>
      3.93038630e-01 6.12731099e-01 1.09915257e-01 7.18698442e-01
      4.02390718e-01 5.98936260e-01 8.96284357e-02 7.10265875e-01
      3.69726747e-01 6.09920323e-01 5.24394885e-02 8.35666955e-01
      3.90716851e-01 6.07387424e-01 7.72805884e-02 7.38768697e-01</_>
    <_>
      7.43268967e-01 2.67350078e-01 4.10651207e-01 6.98542655e-01
      7.83871531e-01 2.58002013e-01 4.75391775e-01 5.37394047e-01
      7.74855137e-01 2.41548494e-01 3.88942271e-01 6.94364011e-01
      7.82265067e-01 2.57644862e-01 4.65562671e-01 5.32340467e-01</_>
    <_>
      8.44134837e-02 9.39771533e-01 5.18930554e-02 9.54183042e-01
      1.10002778e-01 9.21453595e-01 6.79129958e-02 8.75291049e-01
      1.05173789e-01 9.14894342e-01 7.09142983e-02 8.92394423e-01
      9.66745540e-02 9.34680879e-01 6.41421154e-02 9.15973365e-01</_>
    <_>
      1.66208416e-01 8.56251299e-01 7.53194541e-02 9.19176519e-01
      1.75809652e-01 8.55116785e-01 7.74710551e-02 8.81112039e-01
      1.78290650e-01 8.38983059e-01 8.65373760e-02 9.00857627e-01
      1.76279247e-01 8.54300678e-01 8.05447474e-02 8.77305448e-01</_>
    <_>
      1.66208416e-01 8.56251299e-01 7.53194541e-02 9.19176519e-01
      1.75809652e-01 8.55116785e-01 7.74710551e-02 8.81112039e-01
      1.78290650e-01 8.38983059e-01 8.65373760e-02 9.00857627e-01
      1.76279247e-01 8.54300678e-01 8.05447474e-02 8.77305448e-01</_>
    <_>
      1.65091828e-02 1. 9.19371322e-02 9.73968685e-01 2.23379172e-02 1.
      7.22732171e-02 9.56843138e-01 6.66890701e-05 1. 3.38275917e-02 1.
      2.16083936e-02 1. 7.33640566e-02 9.60816503e-01</_>
    <_>
      2.46778071e-01 7.66087472e-01 1.48461148e-01 8.92297029e-01
      2.70012379e-01 7.60694146e-01 1.60979152e-01 7.94402540e-01
      2.65858531e-01 7.47562230e-01 1.45632192e-01 8.39029610e-01
      2.69291103e-01 7.60531187e-01 1.61253169e-01 7.93009281e-01</_>
    <_>
      1.69765696e-01 8.41232538e-01 6.26531616e-02 9.49263632e-01
      1.82171077e-01 8.39273214e-01 6.92542940e-02 8.93464208e-01
      1.71778217e-01 8.28604400e-01 6.61601201e-02 9.29101288e-01
      1.82972297e-01 8.38479400e-01 7.86679313e-02 8.91565681e-01</_>
    <_>
      2.97318459e-01 7.36155093e-01 1.89321235e-01 8.81548285e-01
      3.23143452e-01 7.29610145e-01 2.40546644e-01 7.37973809e-01
      3.15328985e-01 7.14882016e-01 2.28094384e-01 7.80465424e-01
      3.22360128e-01 7.28885710e-01 2.36738771e-01 7.34046519e-01</_>
    <_>
      1.82213664e-01 8.13771248e-01 6.29260316e-02 9.46688235e-01
      1.96808934e-01 8.10043395e-01 7.45370090e-02 8.95291984e-01
      1.93980545e-01 7.96588659e-01 8.36843550e-02 9.25244093e-01
      1.97145268e-01 8.10153782e-01 8.14426243e-02 8.94975483e-01</_>
    <_>
      2.87669361e-01 7.41448998e-01 1.27077371e-01 8.56642783e-01
      3.12102705e-01 7.37404168e-01 1.89737424e-01 7.56100416e-01
      3.16134393e-01 7.20486641e-01 2.07308441e-01 7.98267782e-01
      3.13247919e-01 7.34937429e-01 1.82797536e-01 7.50732362e-01</_>
    <_>
      1.66208416e-01 8.56251299e-01 7.53194541e-02 9.19176519e-01
      1.75809652e-01 8.55116785e-01 7.74710551e-02 8.81112039e-01
      1.78290650e-01 8.38983059e-01 8.65373760e-02 9.00857627e-01
      1.76279247e-01 8.54300678e-01 8.05447474e-02 8.77305448e-01</_>
    <_>
      1.65091828e-02 1. 9.19371322e-02 9.73968685e-01 2.23379172e-02 1.
      7.22732171e-02 9.56843138e-01 6.66890701e-05 1. 3.38275917e-02 1.
      2.16083936e-02 1. 7.33640566e-02 9.60816503e-01</_>
    <_>
      8.44134837e-02 9.39771533e-01 5.18930554e-02 9.54183042e-01
      1.10002778e-01 9.21453595e-01 6.79129958e-02 8.75291049e-01
      1.05173789e-01 9.14894342e-01 7.09142983e-02 8.92394423e-01
      9.66745540e-02 9.34680879e-01 6.41421154e-02 9.15973365e-01</_>
    <_>
      4.50587332e-01 6.00360751e-01 2.52928138e-01 7.86460042e-01
      5.14588475e-01 5.77767849e-01 7.46541619e-01 5.31922340e-01
      5.25697112e-01 5.60072601e-01 1. 5.91590464e-01 5.14355659e-01
      5.76306105e-01 7.37228990e-01 5.25813758e-01</_>
    <_>
      3.93288136e-01 6.18058026e-01 2.49931782e-01 8.79296780e-01
      4.36811566e-01 5.96891880e-01 4.58623499e-01 6.86888814e-01
      4.56294298e-01 5.78479826e-01 5.47751904e-01 7.01527357e-01
      4.39095110e-01 5.94280243e-01 4.70621794e-01 6.77064061e-01</_>
    <_>
      3.00487876e-01 6.99642241e-01 1.20267361e-01 8.89505744e-01
      3.36560309e-01 6.81520760e-01 1.94936052e-01 7.82225013e-01
      3.37005496e-01 6.71503305e-01 1.90598994e-01 8.07649374e-01
      3.25769901e-01 6.87203407e-01 1.37342498e-01 8.05711150e-01</_>
    <_>
      3.00487876e-01 6.99642241e-01 1.20267361e-01 8.89505744e-01
      3.36560309e-01 6.81520760e-01 1.94936052e-01 7.82225013e-01
      3.37005496e-01 6.71503305e-01 1.90598994e-01 8.07649374e-01
      3.25769901e-01 6.87203407e-01 1.37342498e-01 8.05711150e-01</_>
    <_>
      3.40605974e-01 6.58301532e-01 1.59084827e-01 8.67684484e-01
      3.77504915e-01 6.41130328e-01 2.24281281e-01 7.37240374e-01
      3.90928745e-01 6.24313295e-01 2.90857017e-01 7.44931281e-01
      3.81897390e-01 6.35422051e-01 2.77215749e-01 7.17559934e-01</_>
    <_>
      3.59736174e-01 6.54474676e-01 1.54998302e-01 8.57259631e-01
      3.92980307e-01 6.36587024e-01 2.44151741e-01 7.31535792e-01
      4.07690793e-01 6.20628119e-01 3.28216612e-01 7.31226265e-01
      3.97854865e-01 6.32737637e-01 2.89945811e-01 7.16106951e-01</_>
    <_>
      3.59736174e-01 6.54474676e-01 1.54998302e-01 8.57259631e-01
      3.92980307e-01 6.36587024e-01 2.44151741e-01 7.31535792e-01
      4.07690793e-01 6.20628119e-01 3.28216612e-01 7.31226265e-01
      3.97854865e-01 6.32737637e-01 2.89945811e-01 7.16106951e-01</_>
    <_>
      3.90872151e-01 6.20117247e-01 2.15064406e-01 8.86745334e-01
      4.59572971e-01 5.97611010e-01 5.19242227e-01 6.26164198e-01
      4.81800288e-01 5.79482615e-01 6.61051571e-01 6.32663131e-01
      4.59279656e-01 5.96433103e-01 5.12730837e-01 6.20808065e-01</_>
    <_>
      4.29668605e-01 6.05236709e-01 2.09479704e-01 8.04688096e-01
      4.75620031e-01 5.85416317e-01 5.02389133e-01 6.46875262e-01
      4.92411554e-01 5.69020867e-01 5.93261898e-01 6.58434212e-01
      4.65656549e-01 5.86357713e-01 4.21984434e-01 6.58222198e-01</_>
    <_>
      6.72076643e-02 9.48946357e-01 9.01660845e-02 8.84247065e-01
      6.41906336e-02 9.54281807e-01 3.21959890e-02 9.07923520e-01
      3.61352153e-02 9.61915135e-01 1.35796639e-04 9.66895998e-01
      6.61764368e-02 9.53694284e-01 4.98610325e-02 8.98455620e-01</_>
    <_>
      4.48808670e-02 9.74047780e-01 9.16642621e-02 9.08813298e-01
      4.29584384e-02 9.79610145e-01 4.47721779e-02 9.15537417e-01
      1.81368608e-02 9.85231757e-01 1.45367067e-02 9.57104683e-01
      4.42378409e-02 9.79308844e-01 5.97353466e-02 9.05779123e-01</_>
    <_>
      4.03725244e-02 9.75905597e-01 9.49334875e-02 9.13270116e-01
      3.79968099e-02 9.81764436e-01 4.30953540e-02 9.25840557e-01
      1.46331200e-02 9.86517608e-01 1.45367067e-02 9.57881808e-01
      3.94065715e-02 9.80861843e-01 6.27547726e-02 9.10114586e-01</_>
    <_>
      4.21388075e-02 9.78884697e-01 1.12230740e-01 8.81795049e-01
      3.72863263e-02 9.85059738e-01 5.26534133e-02 9.11777020e-01
      1.39303198e-02 9.89307582e-01 1.38577241e-02 9.65002775e-01
      3.90506089e-02 9.84457850e-01 7.20577762e-02 8.96920621e-01</_>
    <_>
      4.33220938e-02 9.75274324e-01 9.69761014e-02 9.11434948e-01
      4.07469980e-02 9.81128514e-01 4.67004478e-02 9.19949710e-01
      1.68466847e-02 9.86797512e-01 1.39935203e-02 9.60862994e-01
      4.35938276e-02 9.80223417e-01 6.28366098e-02 9.09434974e-01</_>
    <_>
      6.04241565e-02 9.61289644e-01 1.05420724e-01 8.73714268e-01
      5.75610138e-02 9.64800596e-01 4.69526835e-02 8.90739977e-01
      2.60369517e-02 9.74985361e-01 7.06530502e-03 9.59803343e-01
      5.88510819e-02 9.64209139e-01 6.12863638e-02 8.82754087e-01</_>
    <_>
      6.81340396e-02 9.49249983e-01 1.02287933e-01 8.81039381e-01
      6.66749775e-02 9.54558134e-01 4.17540520e-02 9.00821924e-01
      3.60710919e-02 9.63754654e-01 0. 9.64140892e-01 6.83332980e-02
      9.53979373e-01 5.60635552e-02 8.93545985e-01</_>
    <_>
      6.91752791e-01 3.04557353e-01 3.07545990e-01 5.23725808e-01
      7.27032781e-01 2.92128712e-01 4.47471917e-01 4.79288906e-01
      7.53699303e-01 2.68534869e-01 5.36747217e-01 4.87545401e-01
      7.24449098e-01 2.92028189e-01 4.41733062e-01 4.76752371e-01</_>
    <_>
      6.78049922e-01 3.62810761e-01 2.02260390e-01 5.63775182e-01
      7.03765571e-01 3.51429254e-01 3.20532948e-01 5.19628406e-01
      7.22783804e-01 3.32440257e-01 3.61635506e-01 5.53612053e-01
      6.88304722e-01 3.56717795e-01 2.65464604e-01 5.64774692e-01</_>
    <_>
      7.13116169e-01 3.04007202e-01 3.35194021e-01 5.01226008e-01
      7.22835720e-01 2.92963684e-01 3.48369509e-01 5.09721041e-01
      7.38206923e-01 2.69737601e-01 3.51990074e-01 5.53117514e-01
      7.20165789e-01 2.92865574e-01 3.43643069e-01 5.06304026e-01</_>
    <_>
      6.29421592e-01 3.93449575e-01 2.12748930e-01 5.84285617e-01
      6.28858864e-01 3.86735618e-01 1.79843828e-01 6.31822228e-01
      6.28606021e-01 3.67427468e-01 1.54598653e-01 7.09058046e-01
      6.27877593e-01 3.86471748e-01 1.80267587e-01 6.25788033e-01</_>
    <_>
      6.09542847e-01 3.94964665e-01 1.67801023e-01 6.11997843e-01
      6.29296422e-01 3.87377441e-01 2.05668047e-01 6.03695154e-01
      6.47261024e-01 3.67778152e-01 2.36925051e-01 6.20794892e-01
      6.28095388e-01 3.87113154e-01 2.05401927e-01 5.97947061e-01</_>
    <_>
      6.29421592e-01 3.93449575e-01 2.12748930e-01 5.84285617e-01
      6.28858864e-01 3.86735618e-01 1.79843828e-01 6.31822228e-01
      6.28606021e-01 3.67427468e-01 1.54598653e-01 7.09058046e-01
      6.27877593e-01 3.86471748e-01 1.80267587e-01 6.25788033e-01</_>
    <_>
      6.72938824e-01 3.41232538e-01 2.84527600e-01 5.28413892e-01
      6.79225624e-01 3.32474589e-01 2.72574484e-01 5.59490561e-01
      6.83645010e-01 3.11649084e-01 2.56351739e-01 6.25951946e-01
      6.76241755e-01 3.32320750e-01 2.68728763e-01 5.58587790e-01</_>
    <_>
      6.14945471e-01 4.18409735e-01 1.72160417e-01 6.24951780e-01
      6.24635935e-01 4.07698929e-01 1.70788661e-01 6.22473717e-01
      6.25546038e-01 3.91417772e-01 1.45768002e-01 6.90167725e-01
      6.03526831e-01 4.15854514e-01 1.33670717e-01 6.80321515e-01</_>
    <_>
      6.09542847e-01 3.94964665e-01 1.67801023e-01 6.11997843e-01
      6.29296422e-01 3.87377441e-01 2.05668047e-01 6.03695154e-01
      6.47261024e-01 3.67778152e-01 2.36925051e-01 6.20794892e-01
      6.28095388e-01 3.87113154e-01 2.05401927e-01 5.97947061e-01</_>
    <_>
      5.47140002e-01 4.68095601e-01 1.46417245e-01 6.40218973e-01
      5.42631447e-01 4.64417309e-01 1.11763477e-01 6.94514275e-01
      5.35582483e-01 4.48515803e-01 8.95261988e-02 7.89875269e-01
      5.41380763e-01 4.64152724e-01 1.14411555e-01 6.89508080e-01</_>
    <_>
      6.78420484e-01 3.64933103e-01 2.27049828e-01 5.66982806e-01
      6.90569818e-01 3.53232890e-01 2.40965456e-01 5.51888347e-01
      6.93848431e-01 3.34073633e-01 2.29723945e-01 6.23112023e-01
      6.73232496e-01 3.58600438e-01 2.12420478e-01 5.98146260e-01</_>
    <_>
      4.53205854e-01 6.51303172e-01 1.32252768e-01 6.55424476e-01
      4.66703683e-01 6.43421292e-01 1.38173863e-01 6.52451813e-01
      4.47134793e-01 6.31077528e-01 1.30689397e-01 8.11845660e-01
      4.63359177e-01 6.45043075e-01 1.39382988e-01 6.57636344e-01</_>
    <_>
      4.47892189e-01 6.67007387e-01 2.23780602e-01 6.52648628e-01
      4.59709406e-01 6.61029875e-01 2.30150163e-01 6.50880158e-01
      4.44326162e-01 6.54852509e-01 2.19806910e-01 7.64075875e-01
      4.57731664e-01 6.60080433e-01 2.22457692e-01 6.53207123e-01</_>
    <_>
      3.85098994e-01 6.93747163e-01 9.75205377e-02 7.42894590e-01
      3.98144275e-01 6.88961208e-01 1.20650485e-01 7.27600813e-01
      3.68285239e-01 6.80799186e-01 1.09903455e-01 8.89469743e-01
      3.97939146e-01 6.87981427e-01 1.20368570e-01 7.24895120e-01</_>
    <_>
      4.24006611e-01 6.91170871e-01 2.47889176e-01 6.64985716e-01
      4.32478100e-01 6.87597334e-01 2.49853253e-01 6.59728050e-01
      4.12161529e-01 6.82349503e-01 2.43581668e-01 7.79660046e-01
      4.32195961e-01 6.86342299e-01 2.46694922e-01 6.58632338e-01</_>
    <_>
      4.59213704e-01 6.41875863e-01 1.63715795e-01 6.71647787e-01
      4.73159224e-01 6.35722339e-01 1.83784455e-01 6.54407680e-01
      4.60967660e-01 6.24488592e-01 1.88017562e-01 7.70094812e-01
      4.72213775e-01 6.34219408e-01 1.77492902e-01 6.50125384e-01</_>
    <_>
      4.47892189e-01 6.67007387e-01 2.23780602e-01 6.52648628e-01
      4.59709406e-01 6.61029875e-01 2.30150163e-01 6.50880158e-01
      4.44326162e-01 6.54852509e-01 2.19806910e-01 7.64075875e-01
      4.57731664e-01 6.60080433e-01 2.22457692e-01 6.53207123e-01</_>
    <_>
      4.49557185e-01 6.68251932e-01 2.77036697e-01 6.48654461e-01
      4.59109485e-01 6.63392186e-01 2.80455709e-01 6.51264310e-01
      4.34469014e-01 6.59198999e-01 2.66811937e-01 7.82203257e-01
      4.59427178e-01 6.61582947e-01 2.80806452e-01 6.48684144e-01</_>
    <_>
      4.03910518e-01 6.79266512e-01 7.99504146e-02 7.17387617e-01
      4.14553642e-01 6.74050629e-01 9.78451893e-02 7.14457035e-01
      3.83013278e-01 6.70697331e-01 9.95790288e-02 8.82885695e-01
      4.16250199e-01 6.72792673e-01 1.06903523e-01 7.08221018e-01</_>
    <_>
      4.47892189e-01 6.67007387e-01 2.23780602e-01 6.52648628e-01
      4.59709406e-01 6.61029875e-01 2.30150163e-01 6.50880158e-01
      4.44326162e-01 6.54852509e-01 2.19806910e-01 7.64075875e-01
      4.57731664e-01 6.60080433e-01 2.22457692e-01 6.53207123e-01</_>
    <_>
      1.34595662e-01 9.20285583e-01 2.04031438e-01 8.10609937e-01
      1.44322470e-01 9.14684713e-01 1.99546918e-01 8.26336503e-01
      1.39018491e-01 9.10400212e-01 2.02554271e-01 8.52211893e-01
      1.44383028e-01 9.14429188e-01 2.12338641e-01 8.28876734e-01</_>
    <_>
      2.12472677e-01 8.62296700e-01 2.03486994e-01 7.75850117e-01
      2.15058044e-01 8.64488602e-01 1.64332807e-01 7.74378300e-01
      2.01888323e-01 8.60509396e-01 1.17919333e-01 8.28376472e-01
      2.19945669e-01 8.60693932e-01 1.82144403e-01 7.58243322e-01</_>
    <_>
      2.07499906e-01 8.78394723e-01 3.16535026e-01 7.51777291e-01
      2.11456209e-01 8.79315972e-01 2.84983307e-01 7.31873453e-01
      1.95673421e-01 8.81906569e-01 2.12199718e-01 7.87770033e-01
      2.07299590e-01 8.82655978e-01 2.85947442e-01 7.51095593e-01</_>
    <_>
      1.41989350e-01 9.16648149e-01 2.23099738e-01 8.12460482e-01
      1.52540103e-01 9.10471261e-01 2.30150163e-01 8.27884912e-01
      1.49042368e-01 9.05423105e-01 2.41271839e-01 8.34367096e-01
      1.51813775e-01 9.09624577e-01 2.26456821e-01 8.23357761e-01</_>
    <_>
      1.34595662e-01 9.20285583e-01 2.04031438e-01 8.10609937e-01
      1.44322470e-01 9.14684713e-01 1.99546918e-01 8.26336503e-01
      1.39018491e-01 9.10400212e-01 2.02554271e-01 8.52211893e-01
      1.44383028e-01 9.14429188e-01 2.12338641e-01 8.28876734e-01</_>
    <_>
      1.91568777e-01 8.76064956e-01 1.85371146e-01 7.85858572e-01
      1.95623234e-01 8.74624133e-01 1.60140753e-01 7.97871828e-01
      1.83641165e-01 8.72472227e-01 1.17376149e-01 8.36274505e-01
      1.95227280e-01 8.74985874e-01 1.47869959e-01 7.89423704e-01</_>
    <_>
      2.12472677e-01 8.62296700e-01 2.03486994e-01 7.75850117e-01
      2.15058044e-01 8.64488602e-01 1.64332807e-01 7.74378300e-01
      2.01888323e-01 8.60509396e-01 1.17919333e-01 8.28376472e-01
      2.19945669e-01 8.60693932e-01 1.82144403e-01 7.58243322e-01</_>
    <_>
      1.40144020e-01 9.16960776e-01 2.01988816e-01 8.34019601e-01
      1.52326018e-01 9.10774350e-01 2.21010923e-01 8.35661709e-01
      1.49663091e-01 9.05432343e-01 2.19806910e-01 8.32120597e-01
      1.51537433e-01 9.09636497e-01 2.01485395e-01 8.39809239e-01</_>
    <_>
      4.35439289e-01 5.98923802e-01 1.56360045e-01 7.16724515e-01
      4.14875954e-01 6.13362432e-01 1.82610512e-01 8.03576410e-01
      4.46657717e-01 5.87388098e-01 2.47792661e-01 7.58593917e-01
      4.43933398e-01 5.99681675e-01 2.26293162e-01 6.96538627e-01</_>
    <_>
      6.30735815e-01 4.03102368e-01 2.05938920e-01 6.59418643e-01
      6.54170454e-01 3.96969169e-01 3.16005349e-01 5.97198963e-01
      6.55961335e-01 3.80067050e-01 3.87583017e-01 6.75770402e-01
      6.60277247e-01 3.92057300e-01 3.25934172e-01 5.74242473e-01</_>
    <_>
      3.94528240e-01 6.52887404e-01 2.25278780e-01 7.65671968e-01
      4.20385718e-01 6.46493733e-01 3.39230239e-01 7.00474977e-01
      4.19097185e-01 6.34193599e-01 3.44790250e-01 7.79589415e-01
      4.08861607e-01 6.50809765e-01 3.13122272e-01 7.12322176e-01</_>
    <_>
      2.89714813e-01 7.96978831e-01 1.62625611e-01 7.32531428e-01
      3.04002702e-01 7.87181318e-01 2.22939193e-01 7.16610789e-01
      2.97835946e-01 7.83450723e-01 2.41950810e-01 7.52970576e-01
      2.91723847e-01 7.97257423e-01 1.84756190e-01 7.37280607e-01</_>
    <_>
      6.89287424e-01 3.13227117e-01 2.40261853e-01 6.18629038e-01
      7.24052012e-01 3.04240197e-01 4.19552058e-01 4.87112314e-01
      7.38619924e-01 2.87065119e-01 4.94497657e-01 5.77419221e-01
      7.25854218e-01 3.03736776e-01 4.11620647e-01 4.76389110e-01</_>
    <_>
      4.35439289e-01 5.98923802e-01 1.56360045e-01 7.16724515e-01
      4.14875954e-01 6.13362432e-01 1.82610512e-01 8.03576410e-01
      4.46657717e-01 5.87388098e-01 2.47792661e-01 7.58593917e-01
      4.43933398e-01 5.99681675e-01 2.26293162e-01 6.96538627e-01</_>
    <_>
      6.85984612e-01 3.20201427e-01 2.87931949e-01 6.43164456e-01
      7.39885032e-01 3.03292334e-01 5.01383364e-01 4.27086234e-01
      7.45127201e-01 2.89396793e-01 5.44627309e-01 5.43962002e-01
      7.32889175e-01 3.05717379e-01 4.65643734e-01 4.41189557e-01</_>
    <_>
      6.89287424e-01 3.13227117e-01 2.40261853e-01 6.18629038e-01
      7.24052012e-01 3.04240197e-01 4.19552058e-01 4.87112314e-01
      7.38619924e-01 2.87065119e-01 4.94497657e-01 5.77419221e-01
      7.25854218e-01 3.03736776e-01 4.11620647e-01 4.76389110e-01</_>
    <_>
      5.67542374e-01 4.59567100e-01 2.12476060e-01 6.96907997e-01
      6.09769881e-01 4.48199332e-01 3.74695808e-01 5.55462420e-01
      6.13103390e-01 4.34162855e-01 4.24942613e-01 6.41649127e-01
      6.00955486e-01 4.51211840e-01 3.55883658e-01 5.68090737e-01</_>
    <_>
      3.94528240e-01 6.52887404e-01 2.25278780e-01 7.65671968e-01
      4.20385718e-01 6.46493733e-01 3.39230239e-01 7.00474977e-01
      4.19097185e-01 6.34193599e-01 3.44790250e-01 7.79589415e-01
      4.08861607e-01 6.50809765e-01 3.13122272e-01 7.12322176e-01</_>
    <_>
      4.88823026e-01 5.39395750e-01 2.21737996e-01 7.53612459e-01
      5.13727427e-01 5.34557581e-01 3.44512165e-01 6.56910658e-01
      5.21803498e-01 5.22276878e-01 3.95734698e-01 7.21180618e-01
      5.20664632e-01 5.29590607e-01 3.63391697e-01 6.40493572e-01</_>
    <_>
      3.94528240e-01 6.52887404e-01 2.25278780e-01 7.65671968e-01
      4.20385718e-01 6.46493733e-01 3.39230239e-01 7.00474977e-01
      4.19097185e-01 6.34193599e-01 3.44790250e-01 7.79589415e-01
      4.08861607e-01 6.50809765e-01 3.13122272e-01 7.12322176e-01</_>
    <_>
      6.62024915e-01 4.32096809e-01 4.23045933e-01 4.53974873e-01
      6.67763770e-01 4.26291078e-01 3.41074437e-01 4.75773036e-01
      6.30447686e-01 4.22501475e-01 2.50917286e-01 6.95451915e-01
      6.68977320e-01 4.25778449e-01 3.80773276e-01 4.63968515e-01</_>
    <_>
      4.06138748e-01 6.32334292e-01 1.97629422e-01 6.71956182e-01
      4.06056046e-01 6.32388413e-01 1.48905858e-01 6.98728681e-01
      3.62301171e-01 6.37429655e-01 8.96619931e-02 8.59248042e-01
      4.06463563e-01 6.30608559e-01 1.56438768e-01 6.90011978e-01</_>
    <_>
      8.03453505e-01 3.15448672e-01 7.22826838e-01 3.05914104e-01
      8.17657173e-01 3.04653227e-01 6.24717236e-01 2.91131139e-01
      7.73069918e-01 3.04060400e-01 4.89336073e-01 5.47607303e-01
      8.13784242e-01 3.04817647e-01 6.55215085e-01 2.87302852e-01</_>
    <_>
      6.05074048e-01 4.53720123e-01 6.34295404e-01 4.70151901e-01
      6.02843821e-01 4.47973490e-01 4.84614313e-01 5.39512873e-01
      5.50130963e-01 4.56427455e-01 2.50645667e-01 7.99793720e-01
      5.99510550e-01 4.49424237e-01 4.92737472e-01 5.38562477e-01</_>
    <_>
      7.83246279e-01 3.28194797e-01 7.21057117e-01 3.69789511e-01
      8.04310918e-01 3.13297093e-01 6.77537978e-01 3.45615625e-01
      7.60776043e-01 3.13217878e-01 5.11751592e-01 5.58500648e-01
      7.93831527e-01 3.15647244e-01 6.19389653e-01 3.67556423e-01</_>
    <_>
      6.69075251e-01 4.18346614e-01 4.37073976e-01 4.71601516e-01
      6.80326641e-01 4.10916984e-01 3.95405471e-01 4.77135152e-01
      6.41289771e-01 4.07760918e-01 2.52546847e-01 6.99916661e-01
      6.73164546e-01 4.11290467e-01 3.43805969e-01 4.78896677e-01</_>
    <_>
      5.14131486e-01 5.37032902e-01 2.75402099e-01 6.21559083e-01
      5.05519211e-01 5.38607597e-01 1.63075581e-01 6.74385309e-01
      4.81415540e-01 5.32267988e-01 1.10719532e-01 7.92898834e-01
      5.21938622e-01 5.29712379e-01 2.37799555e-01 6.26608253e-01</_>
    <_>
      4.06138748e-01 6.32334292e-01 1.97629422e-01 6.71956182e-01
      4.06056046e-01 6.32388413e-01 1.48905858e-01 6.98728681e-01
      3.62301171e-01 6.37429655e-01 8.96619931e-02 8.59248042e-01
      4.06463563e-01 6.30608559e-01 1.56438768e-01 6.90011978e-01</_>
    <_>
      6.00066721e-01 4.88044500e-01 4.56823140e-01 4.61562186e-01
      5.90518534e-01 4.85570818e-01 3.35456997e-01 5.51329494e-01
      5.46406627e-01 4.89464462e-01 2.24698171e-01 7.88349330e-01
      6.00669801e-01 4.78094310e-01 3.95462751e-01 5.21724343e-01</_>
    <_>
      6.05582952e-01 4.31420416e-01 1.85099572e-01 6.22530639e-01
      6.08650029e-01 4.28374052e-01 1.66093707e-01 6.13381326e-01
      6.01643145e-01 4.20452803e-01 1.43866837e-01 7.39053667e-01
      6.14601552e-01 4.25255805e-01 1.92671850e-01 6.02821589e-01</_>
    <_>
      5.59555829e-01 4.18629199e-01 1.19994491e-01 7.35230148e-01
      5.72697639e-01 4.08477455e-01 1.24255583e-01 6.58750117e-01
      5.73556781e-01 3.99107933e-01 1.05556667e-01 7.57689655e-01
      5.68368435e-01 4.10797536e-01 1.25183746e-01 6.64772332e-01</_>
    <_>
      6.21706724e-01 4.01388854e-01 2.23372594e-01 6.40095592e-01
      6.40515983e-01 3.93768936e-01 2.55470693e-01 5.75440049e-01
      6.22863054e-01 3.86569887e-01 1.95626050e-01 7.37895072e-01
      6.32608116e-01 3.93307447e-01 2.21315086e-01 5.90096295e-01</_>
    <_>
      6.05582952e-01 4.31420416e-01 1.85099572e-01 6.22530639e-01
      6.08650029e-01 4.28374052e-01 1.66093707e-01 6.13381326e-01
      6.01643145e-01 4.20452803e-01 1.43866837e-01 7.39053667e-01
      6.14601552e-01 4.25255805e-01 1.92671850e-01 6.02821589e-01</_>
    <_>
      6.21489346e-01 4.03288752e-01 4.02887464e-01 6.43997252e-01
      6.48147821e-01 3.92333746e-01 4.45208132e-01 5.24646103e-01
      6.37765527e-01 3.84804219e-01 3.60956520e-01 6.56300783e-01
      6.46043420e-01 3.91098171e-01 4.44997221e-01 5.17236531e-01</_>
    <_>
      5.91047525e-01 4.38505948e-01 2.13974237e-01 6.53203785e-01
      6.02389753e-01 4.29806262e-01 2.05164373e-01 6.17910028e-01
      5.85560799e-01 4.24340963e-01 1.44953221e-01 7.71352291e-01
      5.96267045e-01 4.32073683e-01 1.95201814e-01 6.28260434e-01</_>
    <_>
      5.68347752e-01 4.25868034e-01 1.48461148e-01 7.28012979e-01
      5.92160702e-01 4.15778220e-01 2.05499887e-01 6.41170740e-01
      5.87571740e-01 4.03731287e-01 1.86116412e-01 7.55358398e-01
      5.82187772e-01 4.18185532e-01 1.71698779e-01 6.60553992e-01</_>
    <_>
      6.58235431e-01 4.18042988e-01 5.09533525e-01 4.66604978e-01
      6.83928490e-01 4.08233792e-01 5.79609513e-01 3.44463080e-01
      6.89198196e-01 4.00633663e-01 4.91780430e-01 4.74871784e-01
      6.82159662e-01 4.07753855e-01 5.70180953e-01 3.39785814e-01</_>
    <_>
      5.19847810e-01 5.19014001e-01 1.84963137e-01 6.71262264e-01
      5.25502145e-01 5.15109658e-01 1.63662553e-01 6.68075323e-01
      5.06801009e-01 5.10415554e-01 1.15202114e-01 7.83262908e-01
      5.14435232e-01 5.18728375e-01 1.62722349e-01 6.81727648e-01</_>
    <_>
      5.75659871e-01 4.89568621e-01 2.22145990e-01 6.13771319e-01
      5.80988169e-01 4.82860893e-01 2.15309396e-01 5.82017779e-01
      5.62240124e-01 4.78353679e-01 1.57044291e-01 7.42854297e-01
      5.74965477e-01 4.85645652e-01 2.01730132e-01 5.96634746e-01</_>
    <_>
      6.02223277e-01 4.12815273e-01 3.57395113e-01 6.78880394e-01
      6.33295834e-01 4.01039988e-01 4.21899945e-01 5.40467560e-01
      6.21313810e-01 3.92632812e-01 3.56745541e-01 6.73538029e-01
      6.30683124e-01 4.01360601e-01 4.13905859e-01 5.39347589e-01</_>
    <_>
      5.70158482e-01 3.90136778e-01 9.93870854e-01 6.47451639e-01
      5.72761178e-01 3.90117079e-01 9.51370478e-01 5.85137844e-01
      5.62391460e-01 3.85650128e-01 5.94484091e-01 7.69656837e-01
      5.71319163e-01 3.89859915e-01 9.27289069e-01 5.80230117e-01</_>
    <_>
      3.42821866e-01 6.99146271e-01 3.47588748e-01 8.30472648e-01
      3.52614433e-01 7.00677454e-01 3.56753618e-01 7.82131851e-01
      3.36641282e-01 6.95570469e-01 2.63279945e-01 8.65916908e-01
      3.52876991e-01 6.99684024e-01 3.59556228e-01 7.79147446e-01</_>
    <_>
      5.44052064e-01 5.11209965e-01 1.90955848e-01 6.28529549e-01
      5.56667030e-01 5.07410705e-01 2.59075791e-01 5.79735935e-01
      5.42418122e-01 5.18068850e-01 2.80804187e-01 6.58787489e-01
      5.50973058e-01 5.11815488e-01 2.51019865e-01 5.85456192e-01</_>
    <_>
      5.10114729e-01 5.42810738e-01 2.12068051e-01 7.62664795e-01
      5.30442595e-01 5.45952916e-01 2.93871105e-01 6.29365742e-01
      5.13923883e-01 5.38979948e-01 2.82706618e-01 7.42727160e-01
      5.28036833e-01 5.46222568e-01 2.83172756e-01 6.30275846e-01</_>
    <_>
      5.40882647e-01 4.86688703e-01 2.03077689e-01 7.39702344e-01
      5.59410155e-01 4.88678902e-01 2.55890310e-01 5.99131525e-01
      5.50171971e-01 4.79848653e-01 2.31490597e-01 7.37061501e-01
      5.56499839e-01 4.88410205e-01 2.53223240e-01 5.96857369e-01</_>
    <_>
      6.50888681e-01 4.20192391e-01 3.98529381e-01 5.41152000e-01
      6.60447180e-01 4.22080576e-01 4.20223117e-01 4.20031190e-01
      6.57390058e-01 4.10938501e-01 3.23869824e-01 5.53852260e-01
      6.56855822e-01 4.22126025e-01 4.02072906e-01 4.16090548e-01</_>
    <_>
      4.96525496e-01 5.59879780e-01 2.02260390e-01 7.69943714e-01
      5.11395991e-01 5.63112855e-01 2.38785744e-01 6.38481438e-01
      5.07206261e-01 5.54403424e-01 2.12607101e-01 7.50130713e-01
      5.10774910e-01 5.61960697e-01 2.48489901e-01 6.35372996e-01</_>
    <_>
      3.42821866e-01 6.99146271e-01 3.47588748e-01 8.30472648e-01
      3.52614433e-01 7.00677454e-01 3.56753618e-01 7.82131851e-01
      3.36641282e-01 6.95570469e-01 2.63279945e-01 8.65916908e-01
      3.52876991e-01 6.99684024e-01 3.59556228e-01 7.79147446e-01</_>
    <_>
      6.64475501e-01 3.82377863e-01 1. 4.52263087e-01 6.75301492e-01
      3.83437335e-01 1. 4.33710545e-01 6.62627697e-01 3.78113747e-01
      8.00027132e-01 6.24991179e-01 6.74082577e-01 3.83000463e-01 1.
      4.25031066e-01</_>
    <_>
      6.14001811e-01 3.55376512e-01 8.10405910e-01 6.93021834e-01
      6.33302927e-01 3.55363399e-01 7.68257082e-01 6.01832449e-01
      6.14668012e-01 3.49570900e-01 4.81456012e-01 7.78586268e-01
      6.31994545e-01 3.54909390e-01 7.67749071e-01 5.98661840e-01</_>
    <_>
      1.99528173e-01 8.07782948e-01 3.80822808e-01 8.51553679e-01
      2.02248141e-01 8.07713807e-01 4.05047596e-01 8.29514742e-01
      1.90068975e-01 8.05687666e-01 3.17211896e-01 9.08798039e-01
      2.02803209e-01 8.06361735e-01 4.16354001e-01 8.24834168e-01</_>
    <_>
      4.96525496e-01 5.59879780e-01 2.02260390e-01 7.69943714e-01
      5.11395991e-01 5.63112855e-01 2.38785744e-01 6.38481438e-01
      5.07206261e-01 5.54403424e-01 2.12607101e-01 7.50130713e-01
      5.10774910e-01 5.61960697e-01 2.48489901e-01 6.35372996e-01</_>
    <_>
      6.07551813e-01 5.50969481e-01 5.96022367e-01 2.97216445e-01
      5.96769392e-01 5.53767741e-01 5.36513388e-01 4.44630712e-01
      5.37388206e-01 5.64803600e-01 4.67735350e-01 7.70278454e-01
      5.95552802e-01 5.55065572e-01 5.63816309e-01 4.25605208e-01</_>
    <_>
      6.16047204e-01 5.38033962e-01 5.04902542e-01 3.97332102e-01
      6.01646364e-01 5.41463137e-01 4.43782747e-01 5.20862460e-01
      5.35484970e-01 5.54692566e-01 3.78344953e-01 8.28955710e-01
      6.00838363e-01 5.43639123e-01 4.86943364e-01 5.13861895e-01</_>
    <_>
      5.76107025e-01 5.58926821e-01 4.27812040e-01 3.49186510e-01
      5.63284874e-01 5.61704397e-01 4.06556278e-01 4.76052433e-01
      5.03728151e-01 5.79211891e-01 3.57831895e-01 7.83517241e-01
      5.61562955e-01 5.64104617e-01 3.96360636e-01 4.57851946e-01</_>
    <_>
      5.80212712e-01 5.56356549e-01 4.24271256e-01 3.53658736e-01
      5.66670299e-01 5.58325887e-01 3.75450939e-01 4.89964604e-01
      5.01034975e-01 5.78922749e-01 3.31069618e-01 7.92969465e-01
      5.62673032e-01 5.62976241e-01 3.90321791e-01 4.86337334e-01</_>
    <_>
      5.75620353e-01 5.76401651e-01 4.77254480e-01 3.83314043e-01
      5.59066653e-01 5.83541334e-01 4.11252022e-01 5.16031027e-01
      4.84850049e-01 6.00935102e-01 2.99280286e-01 8.24434519e-01
      5.57900310e-01 5.81514537e-01 3.76937807e-01 5.15221119e-01</_>
    <_>
      6.31689310e-01 5.23550272e-01 5.34730911e-01 3.01195145e-01
      6.17568731e-01 5.27072549e-01 4.46549416e-01 4.30008382e-01
      5.40132701e-01 5.46894729e-01 3.05801094e-01 7.82754302e-01
      6.13313496e-01 5.27621865e-01 4.41243589e-01 4.28522885e-01</_>
    <_>
      9.91687357e-01 2.46986318e-02 4.47426081e-01 3.20363939e-01
      9.98108506e-01 2.35395487e-02 4.96771663e-01 3.14508229e-01
      9.60807323e-01 2.24030260e-02 5.06588697e-01 5.69846153e-01
      9.94150043e-01 2.33042929e-02 4.91675943e-01 3.07351589e-01</_>
    <_>
      4.27838087e-01 7.08489418e-01 3.72649759e-01 5.86753011e-01
      4.25474405e-01 7.16381431e-01 4.03538138e-01 6.19190633e-01
      3.87925178e-01 7.24473238e-01 3.18571150e-01 7.79645920e-01
      4.21950310e-01 7.16265500e-01 3.85670274e-01 6.21417344e-01</_>
    <_>
      9.62337434e-01 0. 3.22254866e-01 3.88218045e-01 9.67548251e-01 0.
      4.50071216e-01 3.75151336e-01 9.42698717e-01 0. 5.23705542e-01
      6.23027265e-01 9.66797054e-01 0. 4.43120420e-01 3.72290313e-01</_>
    <_>
      3.89076233e-01 7.18370676e-01 3.05638492e-01 6.59819543e-01
      3.94580096e-01 7.25863218e-01 3.93309027e-01 6.58365905e-01
      3.66158903e-01 7.36614466e-01 3.67748946e-01 7.79292703e-01
      3.89784783e-01 7.26905048e-01 3.74489695e-01 6.64631724e-01</_>
    <_>
      4.56889123e-01 6.32129848e-01 1.36610866e-01 6.80838943e-01
      4.61393863e-01 6.38566017e-01 2.22100779e-01 6.84595346e-01
      4.38757628e-01 6.31326735e-01 2.44939640e-01 8.24660540e-01
      4.57652032e-01 6.38237119e-01 2.12338641e-01 6.98448598e-01</_>
    <_>
      4.27838087e-01 7.08489418e-01 3.72649759e-01 5.86753011e-01
      4.25474405e-01 7.16381431e-01 4.03538138e-01 6.19190633e-01
      3.87925178e-01 7.24473238e-01 3.18571150e-01 7.79645920e-01
      4.21950310e-01 7.16265500e-01 3.85670274e-01 6.21417344e-01</_>
    <_>
      4.25382584e-01 7.07214773e-01 3.35194021e-01 5.50296843e-01
      4.24843907e-01 7.14815497e-01 3.42667967e-01 5.98852098e-01
      3.82967085e-01 7.24119484e-01 2.57573903e-01 7.88900375e-01
      4.21587318e-01 7.14121521e-01 3.35890323e-01 6.09582603e-01</_>
    <_>
      3.89076233e-01 7.18370676e-01 3.05638492e-01 6.59819543e-01
      3.94580096e-01 7.25863218e-01 3.93309027e-01 6.58365905e-01
      3.66158903e-01 7.36614466e-01 3.67748946e-01 7.79292703e-01
      3.89784783e-01 7.26905048e-01 3.74489695e-01 6.64631724e-01</_>
    <_>
      9.44249690e-01 2.51053661e-01 9.44701314e-01 4.31336276e-02
      9.68108177e-01 2.24511206e-01 9.53801632e-01 0. 9.96801496e-01
      2.11725980e-01 9.88452137e-01 0. 9.60961103e-01 2.27255449e-01
      9.30797994e-01 0.</_>
    <_>
      7.14595914e-01 4.01388854e-01 5.55298686e-01 3.20641518e-01
      7.15349734e-01 3.88661087e-01 4.43363935e-01 4.11264777e-01
      7.21442342e-01 3.83244634e-01 4.23990726e-01 4.53692585e-01
      7.14343905e-01 3.87389302e-01 4.44916159e-01 4.02158380e-01</_>
    <_>
      7.90669560e-01 2.92794228e-01 4.45382148e-01 3.15444529e-01
      7.97951818e-01 2.74861842e-01 3.90709728e-01 4.02521640e-01
      8.05680871e-01 2.70626605e-01 3.59870166e-01 4.36596632e-01
      7.76450217e-01 2.88598478e-01 2.99249589e-01 4.32213902e-01</_>
    <_>
      4.39688236e-01 7.17589080e-01 6.95177495e-01 4.24581707e-01
      4.31050062e-01 7.16859818e-01 5.23182869e-01 5.25332987e-01
      4.16239828e-01 7.27930725e-01 4.16655123e-01 5.84893405e-01
      4.31207687e-01 7.15852737e-01 5.26195884e-01 5.22380531e-01</_>
    <_>
      7.80477047e-01 3.04097414e-01 6.93952203e-01 3.01164329e-01
      8.03706288e-01 2.79137701e-01 6.78209066e-01 3.25416774e-01
      8.13732326e-01 2.69300818e-01 7.52478957e-01 3.37750971e-01
      8.00871193e-01 2.79072464e-01 6.82960451e-01 3.10011476e-01</_>
    <_>
      8.22242796e-01 2.57940769e-01 7.30182588e-01 3.14565510e-01
      8.41385484e-01 2.35713437e-01 6.35113716e-01 3.31365824e-01
      8.70777130e-01 2.17973486e-01 6.61730587e-01 3.17829251e-01
      8.47155809e-01 2.29396433e-01 6.35058045e-01 3.02863777e-01</_>
    <_>
      8.32534194e-01 2.84040272e-01 4.72487092e-01 2.34497651e-01
      8.33847761e-01 2.76558518e-01 3.73018980e-01 3.03122371e-01
      8.70636046e-01 2.52982259e-01 4.62572515e-01 2.97144562e-01
      8.50607693e-01 2.62015909e-01 4.40345705e-01 2.58278459e-01</_>
    <_>
      4.49957401e-01 6.59786582e-01 5.00817299e-01 5.51669359e-01
      4.51289445e-01 6.52950644e-01 3.90793800e-01 6.02239907e-01
      4.53521580e-01 6.43292606e-01 3.48186463e-01 6.27619147e-01
      4.50663924e-01 6.53131902e-01 3.98400337e-01 6.00571811e-01</_>
    <_>
      6.71246648e-01 4.07677740e-01 4.27812040e-01 4.20818865e-01
      6.81780517e-01 3.90803456e-01 3.77546579e-01 4.61325318e-01
      7.01887071e-01 3.78027618e-01 4.48987663e-01 4.61039603e-01
      6.80426717e-01 3.90593350e-01 3.83874536e-01 4.56527859e-01</_>
    <_>
      7.47856379e-01 3.25843990e-01 7.88885713e-01 3.75094444e-01
      7.80817866e-01 2.98151791e-01 7.91900814e-01 3.47746104e-01
      7.88031340e-01 2.88415521e-01 8.05188715e-01 3.20753932e-01
      7.78489947e-01 2.97236621e-01 7.96148300e-01 3.40160757e-01</_>
    <_>
      9.45225477e-01 2.35580936e-01 8.01280379e-01 0. 9.65179205e-01
      2.12031260e-01 7.88294911e-01 4.27493714e-02 9.85679805e-01
      2.02620819e-01 8.33989263e-01 1.26382858e-01 9.60373282e-01
      2.13287130e-01 7.65382767e-01 5.62208518e-02</_>
    <_>
      2.49873400e-02 9.70632792e-01 1.82509925e-02 9.68062282e-01
      2.79935636e-02 9.74026859e-01 2.66618337e-02 9.71488774e-01
      3.09796371e-02 9.57620978e-01 6.23565242e-02 9.53148603e-01
      2.94185150e-02 9.73438203e-01 3.53352167e-02 9.69862461e-01</_>
    <_>
      1.48217037e-01 8.80586207e-01 1.90002099e-01 8.43812168e-01
      1.64474830e-01 8.75678957e-01 3.85595977e-01 8.34893346e-01
      1.71542242e-01 8.59832644e-01 5.26287019e-01 8.18655789e-01
      1.63956344e-01 8.75449121e-01 3.73021275e-01 8.36856425e-01</_>
    <_>
      0. 9.94829416e-01 9.53739742e-04 9.91549075e-01 0. 1. 0. 1. 0.
      9.85588610e-01 2.05143467e-02 9.81434643e-01 0. 9.99997020e-01 0.
      1.</_>
    <_>
      1.09017923e-01 9.16476786e-01 7.95424134e-02 8.82982492e-01
      1.13404632e-01 9.18375254e-01 1.24088213e-01 8.93033445e-01
      1.28661171e-01 8.98391187e-01 2.37060845e-01 8.44469249e-01
      1.23282827e-01 9.12083328e-01 1.93814471e-01 8.68165731e-01</_>
    <_>
      1.38392553e-01 8.99846673e-01 1.27894685e-01 8.49009156e-01
      1.46668017e-01 8.99411678e-01 2.15142027e-01 8.50994229e-01
      1.61749199e-01 8.79817903e-01 3.48322272e-01 8.05558324e-01
      1.54647425e-01 8.93176794e-01 2.76889175e-01 8.29907894e-01</_>
    <_>
      2.49873400e-02 9.70632792e-01 1.82509925e-02 9.68062282e-01
      2.79935636e-02 9.74026859e-01 2.66618337e-02 9.71488774e-01
      3.09796371e-02 9.57620978e-01 6.23565242e-02 9.53148603e-01
      2.94185150e-02 9.73438203e-01 3.53352167e-02 9.69862461e-01</_>
    <_>
      1.09017923e-01 9.16476786e-01 7.95424134e-02 8.82982492e-01
      1.13404632e-01 9.18375254e-01 1.24088213e-01 8.93033445e-01
      1.28661171e-01 8.98391187e-01 2.37060845e-01 8.44469249e-01
      1.23282827e-01 9.12083328e-01 1.93814471e-01 8.68165731e-01</_>
    <_>
      5.94681390e-02 9.41644371e-01 3.28247584e-02 9.51422632e-01
      5.85114658e-02 9.47007775e-01 4.32635099e-02 9.60300803e-01
      7.26782605e-02 9.26315784e-01 1.26069725e-01 9.16639566e-01
      7.31528550e-02 9.38193738e-01 1.03721201e-01 9.27046478e-01</_>
    <_>
      1.54835045e-01 8.83003175e-01 1.84145838e-01 8.35962653e-01
      1.70041069e-01 8.79616082e-01 3.59855831e-01 8.28490257e-01
      1.79072976e-01 8.63557756e-01 4.87026244e-01 8.10376227e-01
      1.70096725e-01 8.79083753e-01 3.52130055e-01 8.25888753e-01</_>
    <_>
      1.24170899e-01 8.99753511e-01 4.08652797e-03 9.01950777e-01
      1.37481123e-01 8.90230000e-01 3.55496407e-02 8.69958997e-01
      1.17919095e-01 8.93497169e-01 5.66504784e-02 9.31418419e-01
      1.37851566e-01 8.89690638e-01 3.68043967e-02 8.71915340e-01</_>
    <_>
      1.09882534e-01 9.12126839e-01 2.68320516e-02 9.04695809e-01
      1.18709743e-01 9.07262146e-01 5.20664454e-02 8.87689769e-01
      9.57295895e-02 9.15100455e-01 6.07256703e-02 9.44572389e-01
      1.20238401e-01 9.05823708e-01 4.96162996e-02 8.82906437e-01</_>
    <_>
      1.20682798e-01 9.17676210e-01 4.63083498e-02 9.10956919e-01
      1.27266139e-01 9.22870994e-01 9.21436697e-02 8.91997278e-01
      1.04899339e-01 9.21467900e-01 1.20500766e-01 9.51326013e-01
      1.28718302e-01 9.21707332e-01 1.02496758e-01 8.89772892e-01</_>
    <_>
      3.04640502e-01 6.58190310e-01 1.70256831e-02 8.71987045e-01
      3.48657370e-01 6.20024383e-01 3.52981947e-02 7.87743330e-01
      3.29982638e-01 6.24239445e-01 4.55099829e-02 8.58668804e-01
      3.47275227e-01 6.20224357e-01 3.99867222e-02 7.90232241e-01</_>
    <_>
      1.24170899e-01 8.99753511e-01 4.08652797e-03 9.01950777e-01
      1.37481123e-01 8.90230000e-01 3.55496407e-02 8.69958997e-01
      1.17919095e-01 8.93497169e-01 5.66504784e-02 9.31418419e-01
      1.37851566e-01 8.89690638e-01 3.68043967e-02 8.71915340e-01</_>
    <_>
      1.18558317e-01 9.21599269e-01 4.84886989e-02 9.12992537e-01
      1.23918392e-01 9.27369714e-01 9.81807187e-02 8.89505923e-01
      1.02949962e-01 9.24267113e-01 1.29874617e-01 9.49559867e-01
      1.25673875e-01 9.25909102e-01 1.08862177e-01 8.88882399e-01</_>
    <_>
      1.21226266e-01 9.04256701e-01 1.10329753e-02 8.99205804e-01
      1.27160266e-01 9.04757261e-01 4.61975560e-02 8.86304379e-01
      1.05622657e-01 9.07988548e-01 7.21377656e-02 9.46267843e-01
      1.28516898e-01 9.03311551e-01 5.06770723e-02 8.83058727e-01</_>
    <_>
      3.04640502e-01 6.58190310e-01 1.70256831e-02 8.71987045e-01
      3.48657370e-01 6.20024383e-01 3.52981947e-02 7.87743330e-01
      3.29982638e-01 6.24239445e-01 4.55099829e-02 8.58668804e-01
      3.47275227e-01 6.20224357e-01 3.99867222e-02 7.90232241e-01</_>
    <_>
      1.16811797e-01 9.16203201e-01 3.36420648e-02 9.14596319e-01
      1.22824438e-01 9.20802891e-01 7.68840909e-02 8.97899806e-01
      1.01926543e-01 9.19975996e-01 1.06778838e-01 9.49983776e-01
      1.25118852e-01 9.19637620e-01 8.60122889e-02 8.94471645e-01</_>
    <_>
      1.20682798e-01 9.17676210e-01 4.63083498e-02 9.10956919e-01
      1.27266139e-01 9.22870994e-01 9.21436697e-02 8.91997278e-01
      1.04899339e-01 9.21467900e-01 1.20500766e-01 9.51326013e-01
      1.28718302e-01 9.21707332e-01 1.02496758e-01 8.89772892e-01</_></support_vectors>
  <decision_functions>
    <_>
      <sv_count>21</sv_count>
      <rho>-2.0890721544936605e-01</rho>
      <alpha>
        1.3140393644990349e+00 1.3793073917654239e+00
        3.1000000312924385e+00 3.1000000312924385e+00
        3.1000000312924385e+00 3.1000000312924385e+00
        1.5604955819649207e+00 3.1000000312924385e+00
        3.1000000312924385e+00 2.6544088097501102e+00
        3.1000000312924385e+00 -3.1000000312924385e+00
        -3.1000000312924385e+00 -3.1000000312924385e+00
        -1.4953634022496485e+00 -3.1000000312924385e+00
        -3.0032858845137449e+00 -3.1000000312924385e+00
        -3.1000000312924385e+00 -2.4096018612160992e+00
        -3.1000000312924385e+00</alpha>
      <index>
        1 2 3 4 5 6 7 8 9 10 11 12 13 14 15 16 17 18 19 21 22</index></_>
    <_>
      <sv_count>7</sv_count>
      <rho>-1.4314491387076275e-01</rho>
      <alpha>
        7.6337630492024555e-01 7.5631078016542796e-01
        4.1648842439100789e-02 -2.7268185228644459e-01
        -2.7654248989924912e-01 -6.6769502168755368e-01
        -3.4441656365152690e-01</alpha>
      <index>
        1 3 8 26 30 32 33</index></_>
    <_>
      <sv_count>6</sv_count>
      <rho>-2.8277549892330106e-01</rho>
      <alpha>
        1.6609871599963393e+00 5.3983513353711665e-01
        4.2369395155784345e-01 -7.2537398520259189e-01
        -1.5141726841451848e+00 -3.8496957574352214e-01</alpha>
      <index>
        1 3 10 34 38 39</index></_>
    <_>
      <sv_count>9</sv_count>
      <rho>2.4954584261941770e-01</rho>
      <alpha>
        8.8900142413770133e-01 9.3394344355065284e-01
        1.0603923155396260e+00 -1.5827339893910652e+00
        -2.7215983492857804e-01 -2.3891538391589220e-01
        -1.6233448206899395e-01 -3.0582338914108936e-01
        -3.2137010378236192e-01</alpha>
      <index>
        1 3 10 46 47 48 49 51 53</index></_>
    <_>
      <sv_count>21</sv_count>
      <rho>2.3222081173851758e-01</rho>
      <alpha>
        3.1000000312924385e+00 7.2442660969578354e-01
        3.1000000312924385e+00 3.1000000312924385e+00
        3.1000000312924385e+00 3.1000000312924385e+00
        3.1000000312924385e+00 3.1000000312924385e+00
        2.9215779686542995e+00 3.1000000312924385e+00
        -4.1584232598439885e-01 -3.1000000312924385e+00
        -3.1000000312924385e+00 -1.3016222107324724e-01
        -3.1000000312924385e+00 -3.1000000312924385e+00
        -3.1000000312924385e+00 -3.1000000312924385e+00
        -3.1000000312924385e+00 -3.1000000312924385e+00
        -3.1000000312924385e+00</alpha>
      <index>
        0 1 2 3 4 5 8 9 10 11 54 55 56 57 58 59 60 61 62 63 65</index></_>
    <_>
      <sv_count>10</sv_count>
      <rho>2.9705023495753480e-01</rho>
      <alpha>
        1.4498176997918444e+00 6.1618955478899118e-01
        2.4053804538595829e+00 3.1000000312924385e+00
        -5.7193887786620212e-01 -6.6964720495464758e-01
        -3.1000000312924385e+00 -3.1000000312924385e+00
        -1.1267881503415916e-01 -1.7122779292970597e-02</alpha>
      <index>
        1 3 6 10 66 67 68 69 70 73</index></_>
    <_>
      <sv_count>5</sv_count>
      <rho>-2.5593549253404868e-01</rho>
      <alpha>
        5.0775914902246089e-01 3.1000000312924385e+00
        1.1641995068244115e+00 -3.1000000312924385e+00
        -1.6719586558468726e+00</alpha>
      <index>
        1 3 5 75 81</index></_>
    <_>
      <sv_count>7</sv_count>
      <rho>4.4489669747708849e-02</rho>
      <alpha>
        9.1266253538446140e-01 9.1706182224490851e-01
        1.2597736345566674e-01 -7.7029632077311372e-01
        -7.3673761815646305e-02 -8.9292598681164315e-01
        -2.1880565168463373e-01</alpha>
      <index>
        1 3 10 82 84 91 92</index></_>
    <_>
      <sv_count>5</sv_count>
      <rho>-1.9208602348749565e-01</rho>
      <alpha>
        1.1596074001384045e+00 4.6648846308978387e-01
        1.5090554779858047e+00 -1.8387598003020091e+00
        -1.2963915409119837e+00</alpha>
      <index>
        1 3 10 95 96</index></_>
    <_>
      <sv_count>6</sv_count>
      <rho>-6.0630090179398299e-01</rho>
      <alpha>
        2.7516316454743555e+00 1.4807924747098797e+00
        1.2698281541411576e+00 -2.4935719572376520e+00
        -2.1487827537244888e+00 -8.5989756336325063e-01</alpha>
      <index>
        2 3 8 103 107 109</index></_>
    <_>
      <sv_count>9</sv_count>
      <rho>1.8817336047538069e-01</rho>
      <alpha>
        3.0865585368282633e+00 9.9103766234830892e-01
        1.5651644438437793e+00 1.1259988559588494e+00
        -5.3916207826672433e-02 -2.8594073925896875e+00
        -3.1000000312924385e+00 -1.6203579759394915e-01
        -5.9340006967645209e-01</alpha>
      <index>
        1 3 7 10 111 112 113 114 116</index></_>
    <_>
      <sv_count>9</sv_count>
      <rho>2.5587035225205451e-01</rho>
      <alpha>
        1.1397736449689932e+00 9.7094814061874823e-01
        8.3445363114079940e-01 -1.6785107958381557e-01
        -1.5985406560763331e+00 -5.6965177081493157e-01
        -3.7961626371546320e-01 -8.4872174394888006e-02
        -1.4464347214310921e-01</alpha>
      <index>
        1 3 10 122 123 124 125 126 127</index></_>
    <_>
      <sv_count>7</sv_count>
      <rho>9.2332727402951204e-02</rho>
      <alpha>
        1.0167044620233279e+00 9.5188476433727287e-01
        1.4018967063000604e-01 -2.0428884874778394e-01
        -7.4955983624961475e-01 -8.0353094158059601e-01
        -3.5139927041261210e-01</alpha>
      <index>
        1 3 10 132 138 139 141</index></_>
    <_>
      <sv_count>10</sv_count>
      <rho>5.2670218398594193e-01</rho>
      <alpha>
        3.1000000312924385e+00 1.3814193887015742e+00
        1.2964416757626103e+00 -1.3418253030529342e-01
        -2.7292850042938648e+00 -3.2415362562287481e-01
        -5.2106040321248270e-01 -3.4121970959492098e-01
        -2.4431440585123348e-01 -1.4836454168759532e+00</alpha>
      <index>
        1 3 7 142 143 147 148 150 151 152</index></_>
    <_>
      <sv_count>5</sv_count>
      <rho>-2.0171566185321566e-01</rho>
      <alpha>
        7.8204073033843113e-01 7.1823280841379811e-01
        -6.8577576450678912e-01 -1.0309782644575141e-01
        -7.1139994779968863e-01</alpha>
      <index>
        1 3 154 157 158</index></_>
    <_>
      <sv_count>6</sv_count>
      <rho>2.1901792890830260e-01</rho>
      <alpha>
        3.0708698106782166e+00 9.6052518242820384e-01
        -4.1839528922386809e-01 -4.1837823723620776e-01
        -2.3558610493019878e+00 -8.3876041734435824e-01</alpha>
      <index>
        1 3 160 162 163 164</index></_>
    <_>
      <sv_count>10</sv_count>
      <rho>4.1394670634090175e-01</rho>
      <alpha>
        1.5066846787081465e+00 1.2608981645692297e+00
        -3.9309216912579303e-01 -2.1376249351537330e-01
        -1.4425718464582341e-01 -2.9076070314622221e-01
        -8.4201827995305845e-01 -1.9984470608995569e-01
        -4.4469337131172082e-01 -2.3915393548942881e-01</alpha>
      <index>
        1 3 168 170 171 174 175 176 177 178</index></_>
    <_>
      <sv_count>7</sv_count>
      <rho>7.7050658708825593e-03</rho>
      <alpha>
        1.6350658623280772e+00 3.1000000312924385e+00
        2.8965772630848643e+00 -1.6541692782989357e+00
        -1.6187038752964424e+00 -3.1000000312924385e+00
        -1.2587699718175638e+00</alpha>
      <index>
        1 3 4 179 182 186 187</index></_>
    <_>
      <sv_count>11</sv_count>
      <rho>4.6376260187452545e-01</rho>
      <alpha>
        5.9021093369782263e-01 3.1000000312924385e+00
        3.1000000312924385e+00 3.1000000312924385e+00
        3.1000000312924385e+00 1.6215176885584979e+00
        -3.1000000312924385e+00 -2.3126281669946045e+00
        -3.1000000312924385e+00 -2.9991004865541546e+00
        -3.1000000312924385e+00</alpha>
      <index>
        1 3 4 5 9 10 188 191 192 194 196</index></_>
    <_>
      <sv_count>6</sv_count>
      <rho>-6.6670407133650952e-02</rho>
      <alpha>
        7.2863410024846598e-01 7.2565975722412190e-01
        -2.2989827354763254e-01 -2.5556627537848892e-01
        -6.2564455329414981e-01 -3.4318475525231656e-01</alpha>
      <index>
        14 20 26 30 32 33</index></_>
    <_>
      <sv_count>4</sv_count>
      <rho>-1.7872047467084351e-01</rho>
      <alpha>
        1.7430668716208351e+00 4.6349482203853160e-01
        -5.7650010239130989e-01 -1.6300615912680569e+00</alpha>
      <index>
        14 20 34 38</index></_>
    <_>
      <sv_count>8</sv_count>
      <rho>3.1016082326997418e-01</rho>
      <alpha>
        1.5500252976659594e+00 9.7570379839404575e-01
        -1.3186330159679625e+00 -2.4877342275278708e-01
        -2.3949690477247679e-01 -1.4961496677461258e-01
        -2.7310758016352255e-01 -2.9610320562864334e-01</alpha>
      <index>
        14 20 46 47 48 49 51 53</index></_>
    <_>
      <sv_count>19</sv_count>
      <rho>-3.3627732890463541e-01</rho>
      <alpha>
        3.1000000312924385e+00 2.7971643250794904e+00
        3.1000000312924385e+00 2.7933333502205229e+00
        3.1000000312924385e+00 3.1000000312924385e+00
        3.1000000312924385e+00 2.6101606156273567e+00
        6.9381865313826674e-01 3.1000000312924385e+00
        -2.6944768814807598e+00 -3.1000000312924385e+00
        -3.1000000312924385e+00 -3.1000000312924385e+00
        -3.1000000312924385e+00 -3.1000000312924385e+00
        -3.1000000312924385e+00 -3.1000000312924385e+00
        -3.1000000312924385e+00</alpha>
      <index>
        12 13 14 15 16 17 18 19 21 22 54 55 56 58 59 60 61 62 63</index></_>
    <_>
      <sv_count>8</sv_count>
      <rho>2.8838974535462031e-01</rho>
      <alpha>
        1.3538309105719994e+00 3.1000000312924385e+00
        1.3877970043325014e+00 -5.8452710353233395e-01
        -5.5458869781705589e-01 -3.0509047989377995e+00
        -1.6029293161157030e+00 -4.8678029794046312e-02</alpha>
      <index>
        13 14 16 66 67 68 69 73</index></_>
    <_>
      <sv_count>5</sv_count>
      <rho>-2.4880920388987277e-01</rho>
      <alpha>
        3.7667934418497973e-01 1.4915695302911904e+00
        1.5027040840220642e+00 -3.1000000312924385e+00
        -2.7095292720579661e-01</alpha>
      <index>
        14 17 20 75 81</index></_>
    <_>
      <sv_count>6</sv_count>
      <rho>1.2226664332606833e-01</rho>
      <alpha>
        9.2353137059585499e-01 8.6234503738283730e-01
        -7.0761210838703648e-01 -6.5932557209932130e-02
        -8.0789507941880645e-01 -2.0443666296291724e-01</alpha>
      <index>
        14 20 82 84 91 92</index></_>
    <_>
      <sv_count>5</sv_count>
      <rho>-1.2274580463059244e-01</rho>
      <alpha>
        8.2652096802795033e-02 1.9938328277209423e+00
        4.9234601724089366e-01 -1.5763079939557270e+00
        -9.9252294780890415e-01</alpha>
      <index>
        13 14 20 95 96</index></_>
    <_>
      <sv_count>6</sv_count>
      <rho>-4.4244494269976720e-01</rho>
      <alpha>
        2.1494666088146612e+00 1.0499742752109251e+00
        1.4580223139616026e+00 -3.0987972552860676e+00
        -3.5083916599739695e-01 -1.2078267767037252e+00</alpha>
      <index>
        14 17 22 103 108 109</index></_>
    <_>
      <sv_count>8</sv_count>
      <rho>3.1800902118727797e-01</rho>
      <alpha>
        3.1000000312924385e+00 1.3319463397338878e+00
        7.5642673769295998e-01 -9.5356573073118747e-02
        -2.1299013914070222e-01 -1.2232089181521846e+00
        -3.1000000312924385e+00 -5.5681744706084213e-01</alpha>
      <index>
        14 16 20 110 111 112 113 116</index></_>
    <_>
      <sv_count>8</sv_count>
      <rho>3.2770619936605960e-01</rho>
      <alpha>
        1.6083595513484727e+00 9.6100421431287664e-01
        -1.4877173798962420e-01 -1.3551433257994998e+00
        -5.1360708265609700e-01 -3.3693620513587169e-01
        -7.8034790242711344e-02 -1.3687062383754545e-01</alpha>
      <index>
        14 20 122 123 124 125 126 127</index></_>
    <_>
      <sv_count>6</sv_count>
      <rho>1.7168831627754566e-01</rho>
      <alpha>
        1.0080325708222195e+00 8.9028918695516213e-01
        -2.2328435595707016e-01 -6.8701410494945403e-01
        -6.7644010756035733e-01 -3.1158318931050033e-01</alpha>
      <index>
        14 20 132 138 139 141</index></_>
    <_>
      <sv_count>9</sv_count>
      <rho>5.9593853279206499e-01</rho>
      <alpha>
        3.0446812794489442e+00 1.0134519478600426e+00
        -1.1337610911207770e-01 -1.4540993438512486e+00
        -2.8962749902208368e-01 -3.4194621843871348e-01
        -2.9111506785016406e-01 -2.1115655930722646e-01
        -1.3568124297274728e+00</alpha>
      <index>
        14 20 142 143 147 148 150 151 152</index></_>
    <_>
      <sv_count>5</sv_count>
      <rho>-1.2286314295859949e-01</rho>
      <alpha>
        7.0982951771041070e-01 6.7510751475169117e-01
        -6.5432723279174909e-01 -1.2873622020043649e-01
        -6.0187357946991638e-01</alpha>
      <index>
        14 20 154 157 158</index></_>
    <_>
      <sv_count>6</sv_count>
      <rho>2.9394911962927439e-01</rho>
      <alpha>
        1.9243810940683281e+00 8.0131268179108317e-01
        -3.7854548540273947e-01 -3.7798567444628040e-01
        -1.1660709499678055e+00 -8.0309166604258597e-01</alpha>
      <index>
        14 20 160 162 163 164</index></_>
    <_>
      <sv_count>10</sv_count>
      <rho>4.7374864727611704e-01</rho>
      <alpha>
        1.2348625982969812e+00 1.1233628640417206e+00
        -3.5286170913960369e-01 -1.7285150729020610e-01
        -2.1046555858200769e-01 -2.6348832615336931e-01
        -5.3435945262837514e-01 -2.1136977743883889e-01
        -3.9778168216934512e-01 -2.1504744893695574e-01</alpha>
      <index>
        14 20 168 170 171 174 175 176 177 178</index></_>
    <_>
      <sv_count>8</sv_count>
      <rho>3.7051308737270812e-02</rho>
      <alpha>
        8.1014973052140205e-01 1.8371394032929917e+00
        3.1000000312924385e+00 -2.5989071425743915e-01
        -8.3292529168140517e-01 -3.0250833782662179e-01
        -3.1000000312924385e+00 -1.2519647900489290e+00</alpha>
      <index>
        17 19 20 181 182 183 186 187</index></_>
    <_>
      <sv_count>11</sv_count>
      <rho>2.9914107200295975e-01</rho>
      <alpha>
        1.7740746435430415e+00 3.1000000312924385e+00
        3.1000000312924385e+00 3.0044821201329504e-02
        3.1000000312924385e+00 7.7501928482740179e-01
        -3.1000000312924385e+00 -2.2968439166000301e+00
        -3.1000000312924385e+00 -2.8433327800602561e+00
        -5.3896208420392500e-01</alpha>
      <index>
        14 17 18 20 21 22 188 191 192 194 196</index></_>
    <_>
      <sv_count>7</sv_count>
      <rho>-6.9904917176193154e-02</rho>
      <alpha>
        3.3238570094336822e-01 1.3526759063779081e-01
        2.9933224565577888e-02 4.7927534713834286e-01
        3.4993883876771015e-01 -7.8975801665831247e-01
        -5.3704268539447730e-01</alpha>
      <index>
        23 26 30 32 33 37 38</index></_>
    <_>
      <sv_count>10</sv_count>
      <rho>4.0556714744047034e-01</rho>
      <alpha>
        5.7962816815116014e-01 8.2987029735698981e-01
        2.1563291524634284e-01 1.5253764419937041e+00
        -3.7677994446144308e-01 -3.5833520828357562e-01
        -2.0575899291616992e+00 -8.5636669346628530e-02
        -8.6540353135861336e-02 -1.8562571835898872e-01</alpha>
      <index>
        25 30 32 33 46 48 49 50 51 52</index></_>
    <_>
      <sv_count>7</sv_count>
      <rho>1.9331973701386621e-01</rho>
      <alpha>
        2.7405331864024013e-01 2.8714807333590758e-01
        6.9776476973992596e-01 3.7006255569012181e-01
        -6.7709746923765246e-01 -6.6675663562453957e-01
        -2.8517461254400350e-01</alpha>
      <index>
        26 30 32 33 57 60 61</index></_>
    <_>
      <sv_count>6</sv_count>
      <rho>3.1931700067850777e-01</rho>
      <alpha>
        6.9372670520772339e-01 5.9010808736550546e-01
        7.2106925076795092e-01 -6.7594394560362581e-01
        -5.7203598917026832e-01 -7.5692410856728576e-01</alpha>
      <index>
        23 26 32 66 68 74</index></_>
    <_>
      <sv_count>8</sv_count>
      <rho>-1.4639984521876284e-01</rho>
      <alpha>
        1.7034380772399985e-01 2.0413710065270721e-01
        5.0177334304230414e-01 2.8646086286324379e-01
        -3.3212504262486719e-01 -3.1487995011236147e-01
        -3.0010880487608105e-01 -2.1560131666894594e-01</alpha>
      <index>
        26 30 32 33 75 77 78 81</index></_>
    <_>
      <sv_count>6</sv_count>
      <rho>2.9123554670950835e-01</rho>
      <alpha>
        1.3572771049291354e+00 1.6662503591438154e+00
        3.1000000312924385e+00 -3.1000000312924385e+00
        -2.5407312646826652e+00 -4.8279619939028562e-01</alpha>
      <index>
        25 26 33 82 83 91</index></_>
    <_>
      <sv_count>8</sv_count>
      <rho>-2.9754867836788386e-02</rho>
      <alpha>
        3.0511639517479838e-01 2.3793471571384212e-01
        5.0308753440565353e-02 5.0888420637601806e-01
        2.7354839949741716e-01 -6.5838551542457546e-02
        -7.7186746427305419e-01 -5.3808645438712943e-01</alpha>
      <index>
        23 26 30 32 33 95 99 100</index></_>
    <_>
      <sv_count>8</sv_count>
      <rho>-8.6920988960948062e-02</rho>
      <alpha>
        1.8480035386232263e-01 2.1863940723964703e-01
        5.3639116177220247e-01 3.0409267580162569e-01
        -6.5309864789202074e-02 -5.2380190437973750e-01
        -3.6978652453972599e-01 -2.8502530496713258e-01</alpha>
      <index>
        26 30 32 33 102 104 107 109</index></_>
    <_>
      <sv_count>11</sv_count>
      <rho>6.4653796468296876e-01</rho>
      <alpha>
        7.1500653961260374e-01 8.1635142328751176e-01
        3.1000000312924385e+00 3.1000000312924385e+00
        7.0737331694034855e-01 7.3713252108062977e-01
        -2.2631977308055709e-01 -2.8573348048336350e-01
        -2.4638105473571734e+00 -3.1000000312924385e+00
        -3.1000000312924385e+00</alpha>
      <index>
        24 25 26 27 30 31 111 113 114 116 118</index></_>
    <_>
      <sv_count>8</sv_count>
      <rho>5.8321483958433729e-01</rho>
      <alpha>
        1.8905333455792346e+00 8.2559649948639968e-01
        6.6020034886059498e-01 7.4087684696991474e-01
        -4.3039443747665007e-01 -3.3910575792415265e-01
        -1.2174781088750637e+00 -2.1302287366202779e+00</alpha>
      <index>
        28 30 32 33 122 123 126 127</index></_>
    <_>
      <sv_count>9</sv_count>
      <rho>5.1390526516072810e-01</rho>
      <alpha>
        6.2728953678773888e-02 9.3232972274113668e-01
        3.1000000312924385e+00 7.2096505788804788e-01
        3.1000000312924385e+00 4.1228391256801866e-01
        -3.1000000312924385e+00 -3.1000000312924385e+00
        -2.1283076468759776e+00</alpha>
      <index>
        23 26 28 29 30 32 135 138 141</index></_>
    <_>
      <sv_count>11</sv_count>
      <rho>6.3666523677299902e-01</rho>
      <alpha>
        1.1745834214535846e+00 1.7936769325912778e+00
        1.4000764354300577e-01 1.9272392244695615e+00
        -8.9964251520863875e-02 -5.7052192860391704e-01
        -1.4427393589528912e-02 -3.1000000312924385e+00
        -2.7170676477042638e-01 -6.8953661591782145e-01
        -2.9935023636243346e-01</alpha>
      <index>
        28 30 32 33 143 144 145 147 150 151 152</index></_>
    <_>
      <sv_count>5</sv_count>
      <rho>1.2973163720761752e-02</rho>
      <alpha>
        1.8247638014182948e+00 2.5602453383516199e-01
        -5.9931141265384502e-01 -1.2356701414585829e+00
        -2.4580678114102886e-01</alpha>
      <index>
        23 32 154 155 156</index></_>
    <_>
      <sv_count>9</sv_count>
      <rho>2.8970195474168547e-01</rho>
      <alpha>
        2.4594990545470627e-01 2.3756180214898628e-01
        1.5633346882180141e-01 7.4329166152077886e-01
        4.5279736190068870e-01 -3.9400903320898462e-01
        -5.1341377647796327e-01 -4.2150752216398263e-01
        -5.0700386799603092e-01</alpha>
      <index>
        23 26 30 32 33 160 161 162 164</index></_>
    <_>
      <sv_count>11</sv_count>
      <rho>6.1653199185783225e-01</rho>
      <alpha>
        2.7266540298433926e+00 1.1812626222181746e+00
        1.4411138822212819e+00 -2.7644024532618822e-01
        -6.0004928409342961e-01 -1.3597956598582284e-01
        -2.7871905939971597e-01 -5.0123624095021924e-01
        -3.1000000312924385e+00 -3.6335363487216826e-01
        -9.3252472362866948e-02</alpha>
      <index>
        28 32 33 168 169 171 172 175 176 177 178</index></_>
    <_>
      <sv_count>7</sv_count>
      <rho>1.7544934955319655e-01</rho>
      <alpha>
        2.3643244961388143e-01 2.8109477022273910e-01
        6.9082966168171345e-01 3.9282328469105704e-01
        -6.9101866467501560e-01 -7.0215310582072199e-01
        -2.0800839571365320e-01</alpha>
      <index>
        26 30 32 33 180 181 182</index></_>
    <_>
      <sv_count>7</sv_count>
      <rho>1.3097301472904035e-01</rho>
      <alpha>
        2.4297440239527437e-01 2.6886667749972243e-01
        6.6347808797036867e-01 3.6673021633923203e-01
        -1.9866218101561509e-01 -7.6526057336570386e-01
        -5.7812662982327878e-01</alpha>
      <index>
        26 30 32 33 189 191 193</index></_>
    <_>
      <sv_count>8</sv_count>
      <rho>5.5211419490484959e-01</rho>
      <alpha>
        3.1000000312924385e+00 3.1491700965906561e-01
        -2.6703685303608875e+00 -1.9195298649811751e-01
        -6.7372442171776528e-02 -8.5855046125644222e-02
        -2.0454942792833658e-01 -1.9481860786674243e-01</alpha>
      <index>
        34 38 46 47 48 49 51 53</index></_>
    <_>
      <sv_count>5</sv_count>
      <rho>3.2759448642669120e-01</rho>
      <alpha>
        1.3117370773066575e+00 1.8972743144867992e+00
        -5.9738913270232086e-01 -2.0771862009531126e+00
        -5.3443605813802264e-01</alpha>
      <index>
        34 38 57 60 62</index></_>
    <_>
      <sv_count>8</sv_count>
      <rho>4.7667420387930587e-01</rho>
      <alpha>
        2.7730998781686975e+00 4.6049666401476436e-01
        8.2309205119660556e-02 -4.5755940779071380e-01
        -6.2669649232496027e-01 -8.6301177536700990e-01
        -1.1957029992527342e+00 -1.7293507256770346e-01</alpha>
      <index>
        34 38 39 66 68 70 71 74</index></_>
    <_>
      <sv_count>5</sv_count>
      <rho>-8.0090914588173384e-02</rho>
      <alpha>
        4.8391522431155931e-01 6.4189694341081249e-01
        -9.1144496248435375e-02 -2.3985206866313200e-01
        -7.9481560281080466e-01</alpha>
      <index>
        37 38 77 78 81</index></_>
    <_>
      <sv_count>7</sv_count>
      <rho>3.3068564199758432e-01</rho>
      <alpha>
        9.4893713973461258e-01 6.8250886141059852e-01
        2.6194015953122107e-01 -5.2274866897016603e-01
        -5.2307816061236079e-02 -1.0241252824886124e-01
        -1.2159171473961690e+00</alpha>
      <index>
        34 37 38 82 83 84 91</index></_>
    <_>
      <sv_count>10</sv_count>
      <rho>-3.0208905346156606e-01</rho>
      <alpha>
        3.1000000312924385e+00 2.1707329577807757e+00
        3.1000000312924385e+00 3.1000000312924385e+00
        3.1000000312924385e+00 -3.1000000312924385e+00
        -3.1000000312924385e+00 -3.1000000312924385e+00
        -2.1707329577807757e+00 -3.1000000312924385e+00</alpha>
      <index>
        34 35 37 40 42 94 96 98 99 101</index></_>
    <_>
      <sv_count>3</sv_count>
      <rho>9.1513720581993377e-02</rho>
      <alpha>
        2.2043090016132783e+00 -1.2370174259584987e+00
        -9.6729157565477963e-01</alpha>
      <index>
        38 103 104</index></_>
    <_>
      <sv_count>8</sv_count>
      <rho>7.8100976732750349e-01</rho>
      <alpha>
        3.1000000312924385e+00 1.3731853161868285e-01
        2.7900807953474498e+00 -2.0825344927314138e+00
        -8.5715178780425383e-01 -2.8542409928739270e+00
        -1.8994807368358385e-01 -4.3524011165392396e-02</alpha>
      <index>
        34 37 38 110 112 113 116 118</index></_>
    <_>
      <sv_count>9</sv_count>
      <rho>6.5584042780545404e-01</rho>
      <alpha>
        3.1000000312924385e+00 9.2082823768618793e-01
        1.4578384179522155e+00 -3.1000000312924385e+00
        -2.5713589102182421e-01 -5.3090066133888794e-02
        -2.0260567530219958e-01 -1.1995855980741799e+00
        -6.6624942510631135e-01</alpha>
      <index>
        34 40 41 123 124 126 128 129 130</index></_>
    <_>
      <sv_count>5</sv_count>
      <rho>4.3025956750620847e-01</rho>
      <alpha>
        1.9583044844483881e+00 6.8766443080065853e-01
        -1.6403884346104960e-01 -4.9018362516966596e-01
        -1.9917464466183310e+00</alpha>
      <index>
        34 37 135 138 139</index></_>
    <_>
      <sv_count>9</sv_count>
      <rho>7.9013522970390815e-01</rho>
      <alpha>
        3.1000000312924385e+00 1.1166696855366549e+00
        1.1118107512741079e-01 -6.3066262015655905e-02
        -1.4221088879141812e+00 -1.8643211011029032e-01
        -2.3996899016316235e+00 -1.5179643705931070e-01
        -1.0475719322544218e-01</alpha>
      <index>
        34 37 39 142 143 144 148 150 151</index></_>
    <_>
      <sv_count>5</sv_count>
      <rho>-1.8361098108163401e-03</rho>
      <alpha>
        1.6515871506389255e+00 2.4926743308823310e-01
        -6.6917057516030568e-02 -3.0175160693192513e-02
        -1.8037623655179356e+00</alpha>
      <index>
        37 39 154 157 158</index></_>
    <_>
      <sv_count>10</sv_count>
      <rho>6.8356440098162952e-01</rho>
      <alpha>
        2.7164759195301404e+00 2.5876073132982098e+00
        2.4362748872617055e+00 3.1000000312924385e+00
        -1.6959939628365853e-01 -3.0131334614602787e+00
        -1.6946307988586545e-01 -3.1000000312924385e+00
        -1.2881621511678156e+00 -3.1000000312924385e+00</alpha>
      <index>
        34 36 37 39 160 161 162 164 165 166</index></_>
    <_>
      <sv_count>8</sv_count>
      <rho>6.5356508560562843e-01</rho>
      <alpha>
        1.9612942587623681e+00 2.1334617085046985e+00
        -2.3227194188250869e-01 -1.9194216883195506e-01
        -1.6436688483266909e-01 -3.1000000312924385e+00
        -2.6479402699794730e-01 -1.4138091342954676e-01</alpha>
      <index>
        37 39 168 170 174 175 177 178</index></_>
    <_>
      <sv_count>5</sv_count>
      <rho>2.5497093803905735e-01</rho>
      <alpha>
        6.0207446952573485e-01 1.0382885673365185e+00
        -6.5145075561786669e-01 -3.3496549417933413e-01
        -6.5394678706505227e-01</alpha>
      <index>
        37 38 181 183 187</index></_>
    <_>
      <sv_count>4</sv_count>
      <rho>2.8883699397967966e-01</rho>
      <alpha>
        1.0580105473050549e+00 8.7730314194377612e-01
        -1.2581844949895258e+00 -6.7712919425930540e-01</alpha>
      <index>
        34 38 191 193</index></_>
    <_>
      <sv_count>9</sv_count>
      <rho>-2.0284873288345062e-01</rho>
      <alpha>
        2.3548987439939562e+00 2.9669522774347445e-01
        1.6331336497078777e-01 1.7306224359481315e-01
        3.5532612275826769e-01 3.3434136468262704e-01
        -1.0738097526314334e+00 -5.4281926969858146e-02
        -2.5495453881426342e+00</alpha>
      <index>
        46 47 48 49 51 53 57 60 62</index></_>
    <_>
      <sv_count>11</sv_count>
      <rho>-4.8015917438806864e-02</rho>
      <alpha>
        3.1000000312924385e+00 3.2582105135353151e-01
        1.6592210191300888e-01 1.9085028966695192e-01
        4.9460275759438277e-01 2.0922694281769996e-01
        4.5587307344616335e-01 -9.2265023520181610e-01
        -2.3170030946160991e+00 -1.2948608487215367e+00
        -4.0778206954472507e-01</alpha>
      <index>
        46 47 48 49 51 52 53 66 68 70 74</index></_>
    <_>
      <sv_count>11</sv_count>
      <rho>-4.6992928520927602e-01</rho>
      <alpha>
        9.6227304332299757e-02 1.8285450046644341e-01
        2.6386151694113685e-01 1.1710936532025065e-01
        1.8825948965480516e-01 4.2150737663609511e-01
        2.3164072663541035e-01 -1.8602744300752150e-01
        -4.2106257485140713e-01 -2.4810282015229324e-01
        -6.4626744197521968e-01</alpha>
      <index>
        46 47 48 49 51 52 53 75 77 78 81</index></_>
    <_>
      <sv_count>12</sv_count>
      <rho>-5.7426607598099166e-01</rho>
      <alpha>
        5.3440320882834125e-01 3.1000000312924385e+00
        5.1947375719905986e-01 1.7526217529459278e+00
        3.1000000312924385e+00 2.6253659991913425e-01
        6.0057876305790736e-03 2.4565756851856316e-02
        -1.5886333478486108e+00 -3.1000000312924385e+00
        -1.5109735155262878e+00 -3.1000000312924385e+00</alpha>
      <index>
        43 44 45 46 49 50 52 53 82 84 89 91</index></_>
    <_>
      <sv_count>11</sv_count>
      <rho>-3.4511465347145420e-01</rho>
      <alpha>
        3.1000000312924385e+00 2.6360881980171680e-01
        3.0099493404717059e-01 1.1518957852029853e-01
        1.9974489269242737e-01 3.1000000312924385e+00
        3.0706524936491847e-01 -1.2004136233612919e+00
        -1.8441052813609013e+00 -1.2420846009967768e+00
        -3.1000000312924385e+00</alpha>
      <index>
        46 47 48 49 51 52 53 93 95 97 100</index></_>
    <_>
      <sv_count>10</sv_count>
      <rho>-4.5562538567371369e-01</rho>
      <alpha>
        2.9626802672014463e-01 1.9214885370529025e-01
        2.2199397605404184e-01 1.2030755188979693e-01
        2.1044974190761229e-01 5.1534610602456632e-01
        2.3435547705693471e-01 -9.0087949772922482e-01
        -5.2542262858738453e-01 -3.6456760704177832e-01</alpha>
      <index>
        46 47 48 49 51 52 53 103 104 109</index></_>
    <_>
      <sv_count>13</sv_count>
      <rho>-4.3623231630922826e-02</rho>
      <alpha>
        3.2518746605967180e-01 3.1000000312924385e+00
        3.1000000312924385e+00 3.0642922013559615e-01
        5.2917908802133284e-01 9.1901948608797812e-01
        1.1237598594258296e+00 -3.0954811187347802e+00
        -4.1898702547812577e-01 -1.2339275939163021e+00
        -2.9828936522250009e+00 -5.2776320448424652e-01
        -1.1445225874768321e+00</alpha>
      <index>
        44 46 49 50 51 52 53 110 111 113 114 115 116</index></_>
    <_>
      <sv_count>12</sv_count>
      <rho>4.1000099150304656e-02</rho>
      <alpha>
        6.6193062266276359e-01 3.1000000312924385e+00
        1.2069034244914694e+00 1.3337452528292177e+00
        3.4378967907732549e-01 3.1000000312924385e+00
        -3.1000000312924385e+00 -3.7171288322523571e-01
        -8.4143210085806397e-01 -2.0296431977121965e+00
        -3.0358079726527970e-01 -3.1000000312924385e+00</alpha>
      <index>
        44 46 47 49 51 52 123 124 126 127 128 129</index></_>
    <_>
      <sv_count>10</sv_count>
      <rho>-5.3569526565434666e-01</rho>
      <alpha>
        3.1000000312924385e+00 2.6886390113681107e+00
        1.5021189096620695e+00 1.0572655812993503e+00
        2.6608931682370685e-01 -3.1000000312924385e+00
        -1.1007488303060269e+00 -3.4989861399574718e-01
        -1.5119715973263272e+00 -2.5514937775251370e+00</alpha>
      <index>
        44 46 49 50 53 132 135 137 138 139</index></_>
    <_>
      <sv_count>14</sv_count>
      <rho>2.0364375215112956e-01</rho>
      <alpha>
        9.3806990694624859e-01 2.9646693513758868e+00
        4.2244852560275559e-01 1.1931720536289829e+00
        1.2268609760931701e-01 4.4489827394767545e-01
        4.7943012042273853e-01 -5.7537058991337320e-02
        -6.5901893296303693e-01 -1.3938472132822939e+00
        -2.6362359465447009e+00 -6.0057020166212916e-01
        -6.7724868752801193e-01 -5.4091628856209417e-01</alpha>
      <index>
        44 46 47 49 50 51 53 142 143 147 148 150 151 152</index></_>
    <_>
      <sv_count>11</sv_count>
      <rho>-4.2851062117548627e-01</rho>
      <alpha>
        4.4791725838995722e-01 3.4314973107590618e-01
        3.1880367066824494e-01 1.1183233730241790e-01
        1.7370326594974866e-01 1.7775309044336124e-01
        2.9241414541555305e-01 -7.7348462960024622e-01
        -4.1697439868695135e-01 -6.1485169679922691e-01
        -6.0262774158765242e-02</alpha>
      <index>
        46 47 48 49 51 52 53 154 157 158 159</index></_>
    <_>
      <sv_count>14</sv_count>
      <rho>-1.8729849481445096e-01</rho>
      <alpha>
        7.8118235373993331e-02 3.1000000312924385e+00
        2.3007788377138313e-01 3.2938967442752903e-01
        6.7842080187964315e-01 3.2921300327479536e-01
        2.3235148304305620e-02 1.1327351294627984e-01
        -5.8027020373202043e-01 -1.6517503715250088e-02
        -8.4167508343979214e-01 -1.5083604970910702e-01
        -3.1000000312924385e+00 -1.9242941938176047e-01</alpha>
      <index>
        44 46 47 48 49 51 52 53 160 161 162 163 164 166</index></_>
    <_>
      <sv_count>14</sv_count>
      <rho>2.4985585110491479e-01</rho>
      <alpha>
        8.6050629585099170e-01 3.8678844711709548e-01
        7.1867689421204195e-01 2.2252547378022456e+00
        3.0323604204046228e-01 4.0822200256926133e-01
        -5.0810380298519509e-01 -1.5517581953417712e+00
        -2.7961170059818635e-01 -1.3055313375123798e-01
        -7.0183846599565081e-01 -9.1528479918570604e-01
        -5.2157122985819537e-01 -2.9396309187615588e-01</alpha>
      <index>
        46 47 48 49 51 52 168 170 171 173 175 176 177 178</index></_>
    <_>
      <sv_count>10</sv_count>
      <rho>-1.8087492546310724e-01</rho>
      <alpha>
        3.8752626603560625e-01 2.8362348311654739e-01
        4.0556431910921681e-01 1.7974391783725857e-01
        2.8842371438191600e-01 4.3402005148096745e-01
        3.5859621560871779e-01 -9.9771829770226683e-01
        -9.8617097299007084e-01 -3.5360869687789231e-01</alpha>
      <index>
        46 47 48 49 51 52 53 180 181 182</index></_>
    <_>
      <sv_count>10</sv_count>
      <rho>-2.8278562173729710e-01</rho>
      <alpha>
        1.6727418675587347e+00 2.6569655734582442e-01
        3.6616028833317313e-02 1.6437390195474230e-01
        3.6057256571870377e-01 3.1000000312924385e+00
        2.8942642192470958e-01 -3.0992878347815811e+00
        -8.9646771373024348e-01 -1.8936718261166461e+00</alpha>
      <index>
        46 47 48 49 51 52 53 191 193 195</index></_>
    <_>
      <sv_count>9</sv_count>
      <rho>1.6956887087502773e-01</rho>
      <alpha>
        8.9086816355126175e-01 1.9217753201039192e+00
        3.1000000312924385e+00 3.1000000312924385e+00
        -6.9926980449586562e-01 -3.1000000312924385e+00
        -3.1000000312924385e+00 -1.8237344884717841e+00
        -2.8963919068753041e-01</alpha>
      <index>
        57 58 60 62 66 68 69 70 73</index></_>
    <_>
      <sv_count>11</sv_count>
      <rho>-3.8150151275408389e-01</rho>
      <alpha>
        3.1000000312924385e+00 7.0081125394329702e-02
        3.1000000312924385e+00 2.1273789735037429e-01
        3.1000000312924385e+00 3.1000000312924385e+00
        -3.1000000312924385e+00 -3.1000000312924385e+00
        -3.1000000312924385e+00 -3.1000000312924385e+00
        -2.8281902274470444e-01</alpha>
      <index>
        54 55 57 60 64 65 75 76 77 79 81</index></_>
    <_>
      <sv_count>7</sv_count>
      <rho>-8.8712020543938053e-03</rho>
      <alpha>
        8.4180880833937421e-01 9.5149279053614644e-01
        3.0815238506704568e-01 -8.0350765972198313e-01
        -1.0474634984382244e-01 -9.9778911404763382e-01
        -1.9541086032912697e-01</alpha>
      <index>
        57 60 61 82 84 91 92</index></_>
    <_>
      <sv_count>5</sv_count>
      <rho>-2.1636106445176864e-01</rho>
      <alpha>
        6.3911966686316557e-01 9.3044216496459109e-01
        3.1000000312924385e+00 -3.1000000312924385e+00
        -1.5695618318277567e+00</alpha>
      <index>
        57 60 62 95 96</index></_>
    <_>
      <sv_count>7</sv_count>
      <rho>-6.8075890671437966e-01</rho>
      <alpha>
        1.3816032173472288e+00 1.8397455589932405e+00
        3.0561053365092898e+00 1.0162425851747900e-01
        -2.2771651604034973e+00 -3.1000000312924385e+00
        -1.0019131796713028e+00</alpha>
      <index>
        54 55 58 60 103 107 109</index></_>
    <_>
      <sv_count>9</sv_count>
      <rho>2.2513393644719920e-01</rho>
      <alpha>
        1.6890587450152768e-02 1.1357354965000348e+00
        3.1000000312924385e+00 2.6576595665557399e+00
        -1.1816038024579774e+00 -1.8843204329243146e+00
        -3.1000000312924385e+00 -1.7965037672961315e-01
        -5.6471103839402326e-01</alpha>
      <index>
        54 57 60 62 110 112 113 114 116</index></_>
    <_>
      <sv_count>9</sv_count>
      <rho>2.1567813640709416e-01</rho>
      <alpha>
        1.0996635554151348e+00 8.8943907384514875e-01
        1.7375696576312822e+00 -6.8693558546150293e-02
        -2.3391672676391675e+00 -5.9866678397481410e-01
        -3.8313446264204981e-01 -9.5190163676819442e-02
        -2.4182005041256435e-01</alpha>
      <index>
        57 60 62 122 123 124 125 126 127</index></_>
    <_>
      <sv_count>7</sv_count>
      <rho>3.5343596855642902e-02</rho>
      <alpha>
        8.9127924098755040e-01 1.1401825536985959e+00
        2.7283352058558830e-01 -1.2825589054641226e-01
        -8.0177351726627566e-01 -1.0190395173276114e+00
        -3.5522639013143553e-01</alpha>
      <index>
        57 60 61 132 138 139 141</index></_>
    <_>
      <sv_count>11</sv_count>
      <rho>4.8820231377175061e-01</rho>
      <alpha>
        1.3688684982309658e+00 3.1000000312924385e+00
        1.8288207294559861e-01 4.7353036482064709e-01
        -1.4304051441129820e-01 -2.5036119297622221e+00
        -3.1131837065859724e-01 -7.5891308356109521e-01
        -3.6941501847709834e-01 -2.6813375273063073e-01
        -7.7084829768870777e-01</alpha>
      <index>
        57 60 61 62 142 143 147 148 150 151 152</index></_>
    <_>
      <sv_count>6</sv_count>
      <rho>-2.5115594835244159e-01</rho>
      <alpha>
        6.3578822679012881e-01 6.8310220417353407e-01
        2.3728847819743010e-01 -7.1549580395636170e-01
        -1.0771759610703383e-01 -7.3296550909769742e-01</alpha>
      <index>
        57 60 61 154 157 158</index></_>
    <_>
      <sv_count>6</sv_count>
      <rho>1.9011354975482642e-01</rho>
      <alpha>
        1.0824926709201039e+00 2.9609393076785691e+00
        -4.3394454294425161e-01 -4.3383755303979121e-01
        -1.6297466339853168e+00 -1.5459032486293143e+00</alpha>
      <index>
        57 60 160 162 163 164</index></_>
    <_>
      <sv_count>11</sv_count>
      <rho>3.6602870763939693e-01</rho>
      <alpha>
        1.1691110132407030e+00 1.3404866397227655e+00
        3.9693553017887101e-01 -4.2514803736595608e-01
        -2.1915515903325733e-01 -1.8185265377581503e-01
        -3.1593972095836903e-01 -7.8887563125136317e-01
        -2.3652258663873246e-01 -4.8020212303692589e-01
        -2.5883727108192078e-01</alpha>
      <index>
        57 60 61 168 170 171 174 175 176 177 178</index></_>
    <_>
      <sv_count>13</sv_count>
      <rho>9.9881880453496514e-03</rho>
      <alpha>
        3.1000000312924385e+00 2.6053785427751808e+00
        3.1000000312924385e+00 8.3324965379582805e-01
        3.1000000312924385e+00 3.1000000312924385e+00
        -3.1000000312924385e+00 -2.0878191999709939e-01
        -1.7399739894475723e+00 -2.6081162612208035e+00
        -3.1000000312924385e+00 -1.9817560571979729e+00
        -3.1000000312924385e+00</alpha>
      <index>
        54 55 57 60 64 65 179 180 181 182 184 185 186</index></_>
    <_>
      <sv_count>20</sv_count>
      <rho>-1.9487701488975948e-01</rho>
      <alpha>
        3.1000000312924385e+00 3.1000000312924385e+00
        3.1000000312924385e+00 3.0462629517416429e+00
        3.1000000312924385e+00 1.7071912345263718e+00
        1.0344530384392350e+00 3.1000000312924385e+00
        3.1000000312924385e+00 3.1000000312924385e+00
        -3.1000000312924385e+00 -3.1000000312924385e+00
        -3.1000000312924385e+00 -3.0330811770433410e+00
        -3.1000000312924385e+00 -3.1000000312924385e+00
        -2.0284351876281512e+00 -7.2639086003575704e-01
        -3.1000000312924385e+00 -3.1000000312924385e+00</alpha>
      <index>
        54 55 56 57 59 61 62 63 64 65 188 189 190 191 192 193 194 195
        196 197</index></_>
    <_>
      <sv_count>6</sv_count>
      <rho>-4.1876050233275192e-01</rho>
      <alpha>
        4.9027438150585811e-01 1.4835728216047436e-01
        6.3651424347327545e-01 2.1118939027311739e-01
        -3.8333940672226596e-01 -1.1029958906904593e+00</alpha>
      <index>
        66 67 68 74 77 81</index></_>
    <_>
      <sv_count>9</sv_count>
      <rho>-9.8712606230099725e-02</rho>
      <alpha>
        7.5997370798530461e-01 7.1741651271135021e-01
        4.4645663627965371e-01 5.8435909737057623e-01
        -9.4199044135729904e-01 -1.5777784870791392e-01
        -1.0092861117787355e-01 -1.2899564255196938e+00
        -1.7552627584104887e-02</alpha>
      <index>
        66 68 71 74 82 83 88 91 92</index></_>
    <_>
      <sv_count>7</sv_count>
      <rho>-4.1357095454232179e-01</rho>
      <alpha>
        4.8652814724227050e-01 2.6534904389028133e+00
        2.2215439199573650e+00 3.4582757705072337e-01
        -3.1000000312924385e+00 -1.0456274214698855e+00
        -1.5617626303908489e+00</alpha>
      <index>
        66 68 71 74 95 96 99</index></_>
    <_>
      <sv_count>7</sv_count>
      <rho>-4.3621781474529542e-01</rho>
      <alpha>
        4.6014478072609094e-01 1.5415654311879992e+00
        1.7812844293010685e-01 1.0716835439292979e-01
        -1.6893029068713452e+00 -4.7776968944130399e-01
        -1.1993441292447762e-01</alpha>
      <index>
        66 68 73 74 103 104 109</index></_>
    <_>
      <sv_count>14</sv_count>
      <rho>2.0650365487433422e-01</rho>
      <alpha>
        5.5012328673603883e-01 5.4327435868327556e-01
        2.1227335427481901e+00 3.1000000312924385e+00
        3.1000000312924385e+00 3.1000000312924385e+00
        3.1000000312924385e+00 -2.6423402914358358e+00
        -3.1000000312924385e+00 -2.5307474280401778e+00
        -7.9601511280504100e-01 -3.1000000312924385e+00
        -1.5954543802473777e+00 -1.8515740382239492e+00</alpha>
      <index>
        66 67 68 70 71 72 74 110 112 113 116 119 120 121</index></_>
    <_>
      <sv_count>10</sv_count>
      <rho>9.5337544098456406e-02</rho>
      <alpha>
        9.4247080582802167e-01 1.9397894325888458e+00
        1.3236958531109322e+00 5.6664605867521700e-01
        -2.0395088763317826e-01 -3.0553962593504034e+00
        -6.6932826232581710e-01 -5.2654657459299992e-01
        -1.2319638624029336e-01 -1.9418378006032591e-01</alpha>
      <index>
        66 68 70 74 122 123 124 125 126 127</index></_>
    <_>
      <sv_count>7</sv_count>
      <rho>-5.6491220293047907e-02</rho>
      <alpha>
        8.0697697561539217e-01 7.1003529162439871e-01
        8.0528032775719516e-01 7.5385491742543242e-01
        -8.7669370187388151e-01 -1.5637312288361689e+00
        -6.3572258171236828e-01</alpha>
      <index>
        66 68 71 74 138 139 141</index></_>
    <_>
      <sv_count>14</sv_count>
      <rho>3.7457296048505134e-01</rho>
      <alpha>
        1.0618186766284397e+00 1.3866801139516796e+00
        1.1776717928513873e+00 3.1000000312924385e+00
        9.9346547548448805e-01 3.7757004326023086e-01
        -1.3630491611321086e-01 -3.1000000312924385e+00
        -7.4208015096081970e-01 -2.3219756984483111e-01
        -2.2059528990715296e+00 -7.6718412949707049e-01
        -4.6372273712224515e-01 -4.4976369956651846e-01</alpha>
      <index>
        66 67 68 70 71 74 142 143 145 147 148 149 150 151</index></_>
    <_>
      <sv_count>8</sv_count>
      <rho>-3.4953350320255466e-01</rho>
      <alpha>
        5.3289521818436347e-01 5.4062894300351838e-01
        1.2045286971532662e-04 6.5321701372449040e-02
        6.9352223882417685e-01 -7.9014129819454315e-01
        -2.5174591795503559e-01 -7.9060133810464428e-01</alpha>
      <index>
        66 68 70 71 74 154 157 158</index></_>
    <_>
      <sv_count>9</sv_count>
      <rho>4.2953021914236555e-02</rho>
      <alpha>
        8.0645512913843131e-01 9.1858768846664307e-01
        3.1000000312924385e+00 5.1226501791972145e-01
        1.0286622758170865e+00 -5.1235564694962221e-01
        -5.1319229310137326e-01 -2.2404221712908869e+00
        -3.1000000312924385e+00</alpha>
      <index>
        66 68 71 72 74 160 162 163 164</index></_>
    <_>
      <sv_count>12</sv_count>
      <rho>2.9135566667871299e-01</rho>
      <alpha>
        1.0224139530393008e+00 2.7411513962026812e-01
        9.7472950503987044e-01 4.1311074167666245e-01
        1.0977456910279322e+00 -4.7596300642437950e-01
        -1.6601224435806944e-01 -3.6599125653730441e-01
        -1.5603165784631432e+00 -3.8074679669119760e-01
        -5.4601488561243705e-01 -2.8707026231750266e-01</alpha>
      <index>
        66 67 68 71 74 168 170 174 175 176 177 178</index></_>
    <_>
      <sv_count>8</sv_count>
      <rho>-1.1597080826387762e-01</rho>
      <alpha>
        7.5011207845719396e-01 4.5738407136194209e-01
        1.1415356407396726e+00 1.4495018315497463e-01
        -9.7080073899003616e-01 -9.1810963136563328e-01
        -2.8627546080138433e-01 -3.1879614255672939e-01</alpha>
      <index>
        66 67 68 74 180 181 182 183</index></_>
    <_>
      <sv_count>7</sv_count>
      <rho>-3.3026852910969948e-02</rho>
      <alpha>
